{"learner":{"attributes":{},"feature_names":["Z_Score","Amihud_Ratio","Garman_Klass_Vol","RVOL","Momentum_1M","Idiosyncratic_Vol","VIX","VIX_ZScore","Z_Score_rank","Amihud_Ratio_rank","Garman_Klass_Vol_rank","RVOL_rank","Momentum_1M_rank","Idiosyncratic_Vol_rank","VIX_rank","VIX_ZScore_rank"],"feature_types":["float","float","float","float","float","float","float","float","float","float","float","float","float","float","float","float"],"gradient_booster":{"model":{"cats":{"enc":[],"feature_segments":[],"sorted_idx":[]},"gbtree_model_param":{"num_parallel_tree":"1","num_trees":"53"},"iteration_indptr":[0,1,2,3,4,5,6,7,8,9,10,11,12,13,14,15,16,17,18,19,20,21,22,23,24,25,26,27,28,29,30,31,32,33,34,35,36,37,38,39,40,41,42,43,44,45,46,47,48,49,50,51,52,53],"tree_info":[0,0,0,0,0,0,0,0,0,0,0,0,0,0,0,0,0,0,0,0,0,0,0,0,0,0,0,0,0,0,0,0,0,0,0,0,0,0,0,0,0,0,0,0,0,0,0,0,0,0,0,0,0],"trees":[{"base_weights":[1.2186463E-6,-1.9491665E-5,5.2943924E-3,-9.129661E-5,3.0543125E-4,3.956826E-3,2.7238593E-2,-1.1674126E-4,2.1121996E-4,1.559483E-4,8.280657E-4,3.3853229E-3,7.2150595E-2,4.0177315E-2,-1.114509E-3,-1.9564724E-4,-3.0412551E-5,1.4714232E-4,3.3140888E-3,2.8939703E-5,6.370006E-4,7.647946E-4,4.821506E-3,1.0249499E-1,3.1581998E-3,9.856398E-2,7.245832E-3,2.3030723E-2,5.849788E-2,1.9533306E-2,-7.310027E-2,-4.040196E-4,-1.6036035E-4,-3.6883994E-5,2.2440895E-3,4.2127905E-4,-3.413411E-4,2.5145763E-3,8.120144E-2,-8.252415E-5,1.7864624E-4,7.092831E-4,-7.004763E-4,3.6246446E-4,1.1090159E-3,1.964421E-3,2.0610629E-2,5.5444345E-4,1.7195578E-3,4.2464742E-3,-1.1854626E-2,6.173041E-2,1.2825498E-1,-4.3020184E-5,2.4559835E-4,4.0605847E-2,-2.913818E-2,1.4488219E-1,4.264981E-2,-2.1912828E-4,5.1552095E-2,-2.0137124E-3,-4.526985E-2,-1.5099435E-4,-1.2696832E-3,-2.5103716E-4,-9.195208E-5,-2.4546138E-5,-7.1172573E-4,5.676692E-4,2.5339562E-2,8.659293E-5,8.479712E-4,-2.2271308E-4,-4.2747115E-3,6.840697E-4,9.922295E-3,-1.2921338E-4,1.5992592E-1,-5.825079E-5,-8.0919353E-4,4.4634752E-4,3.754007E-5,6.739433E-4,3.7409696E-3,-3.3773924E-4,-5.727706E-3,4.3631712E-4,-2.274875E-3,1.8591096E-3,6.3592487E-4,1.36882905E-2,1.1644104E-3,1.04141515E-2,4.51247E-2,-1.1615711E-2,4.9533206E-3,-1.4034554E-2,1.0196664E-3,3.974395E-4,1.3254803E-3,2.0760482E-3,9.913319E-4,6.978625E-3,4.977971E-2,-5.235567E-2,1.5537166E-4,5.673283E-4,1.8664683E-1,2.6745921E-2,7.3371276E-2,-3.1484704E-2,6.0071643E-2,8.122976E-2,-4.1436797E-4,-3.1168128E-3,-1.2065115E-3,-1.020786E-6,-8.110079E-6,4.5302264E-7,-1.8947676E-5,-2.6963253E-6,-1.6049642E-5,-1.3635893E-6,2.7677147E-6,-5.2687824E-7,6.8281456E-6,-1.283832E-5,2.847946E-4,-6.1260443E-4,1.25118695E-5,2.5592194E-4,1.0566323E-3,1.2039905E-5,-3.4306404E-7,-7.254844E-7,1.5202223E-5,-1.3989908E-6,-3.0579777E-5,-9.1566595E-5,1.1010292E-4,-2.2473744E-6,8.0169855E-5,1.2229101E-5,1.6292708E-4,2.30086E-3,1.4666899E-3,-3.2019425E-6,-0E0,-6.1245323E-6,-7.57785E-5,4.148597E-6,1.48299805E-5,8.3132494E-7,-1.6964465E-5,4.936771E-6,1.1988848E-5,-9.741443E-6,5.5548877E-5,-5.5830033E-6,8.816899E-5,-4.211803E-5,-2.1281051E-4,-4.7522346E-7,9.798761E-6,-2.1371612E-5,-1.736361E-4,1.9654963E-5,6.135571E-5,6.202912E-6,4.6622074E-5,-6.735922E-5,2.7878565E-4,5.6821795E-5,-1.1579923E-5,-1.9416865E-4,1.5193429E-4,9.763692E-4,4.0763716E-4,3.957902E-4,-2.2207692E-4,3.5864176E-4,5.470302E-5,-6.124349E-4,-9.357072E-5,4.1224656E-4,-2.997669E-4,1.5504545E-3,4.930489E-4,-1.0073108E-3,-3.9900953E-4,1.5972569E-3,2.6934217E-3,4.477373E-4,-6.1755284E-4,2.291249E-3,3.856022E-4,-1.6857692E-4,-8.81483E-4,-3.3988935E-4,1.8454711E-3,4.5776158E-4,1.7277683E-3,2.1783581E-4,-3.0770758E-4],"categories":[],"categories_nodes":[],"categories_segments":[],"categories_sizes":[],"default_left":[0,0,0,0,0,0,0,0,0,0,0,0,0,0,0,0,0,0,0,0,0,0,0,0,0,0,0,0,0,0,0,0,0,0,0,0,0,0,0,0,0,0,0,0,0,0,0,0,0,0,0,0,0,0,0,0,0,0,0,0,0,0,0,0,0,0,0,0,0,0,0,0,0,0,0,0,0,0,0,0,0,0,0,0,0,0,0,0,0,0,0,0,0,0,0,0,0,0,0,0,0,0,0,0,0,0,0,0,0,0,0,0,0,0,0,0,0,0,0,0,0,0,0,0,0,0,0,0,0,0,0,0,0,0,0,0,0,0,0,0,0,0,0,0,0,0,0,0,0,0,0,0,0,0,0,0,0,0,0,0,0,0,0,0,0,0,0,0,0,0,0,0,0,0,0,0,0,0,0,0,0,0,0,0,0,0,0,0,0,0,0,0,0,0,0,0,0,0,0,0,0,0,0,0,0],"id":0,"left_children":[1,3,5,7,9,11,13,15,17,19,21,23,25,27,29,31,33,35,37,39,41,43,45,47,49,51,53,55,57,59,61,63,65,67,69,71,73,75,77,79,81,83,85,87,89,91,93,-1,-1,95,97,99,101,-1,-1,103,105,107,109,111,113,-1,115,117,119,121,123,125,127,129,131,133,135,137,139,141,143,-1,145,147,149,151,153,155,157,159,161,163,165,167,169,171,173,175,177,179,181,183,-1,-1,-1,-1,-1,185,187,189,-1,-1,191,193,195,197,199,201,-1,203,-1,-1,-1,-1,-1,-1,-1,-1,-1,-1,-1,-1,-1,-1,-1,-1,-1,-1,-1,-1,-1,-1,-1,-1,-1,-1,-1,-1,-1,-1,-1,-1,-1,-1,-1,-1,-1,-1,-1,-1,-1,-1,-1,-1,-1,-1,-1,-1,-1,-1,-1,-1,-1,-1,-1,-1,-1,-1,-1,-1,-1,-1,-1,-1,-1,-1,-1,-1,-1,-1,-1,-1,-1,-1,-1,-1,-1,-1,-1,-1,-1,-1,-1,-1,-1,-1,-1,-1,-1],"loss_changes":[1.8455938E-1,3.9115764E-2,1.9230491E-1,1.0569271E-2,2.3697985E-2,2.4036643E-1,1.3847598E-1,8.6265765E-3,2.114922E-2,1.4411431E-2,1.7002072E-2,1.3712016E-1,8.6799175E-2,8.01765E-2,1.7649047E-1,4.861053E-3,8.88637E-3,1.3975831E-2,1.3329461E-1,3.116061E-3,4.7638062E-3,9.187046E-3,4.7183465E-2,2.737993E-2,9.9957466E-2,3.5528064E-2,2.304224E-3,1.2376625E-1,1.6706398E-1,5.858876E-2,6.426692E-2,2.0971963E-2,3.5077622E-3,5.0165267E-3,6.609829E-2,9.540183E-3,1.7462822E-2,2.8809283E-2,1.5911563E-1,1.8799817E-3,3.006981E-3,4.972404E-3,4.5469813E-3,5.9529813E-3,1.2678519E-2,8.22331E-3,3.9500684E-2,0E0,0E0,6.396251E-2,8.6250216E-2,2.103366E-2,3.253889E-2,0E0,0E0,3.0527353E-2,3.3621173E-2,7.345685E-2,5.0265074E-2,1.07962295E-1,9.0981625E-2,0E0,4.6846252E-2,2.5588772E-3,8.294035E-3,7.482481E-3,2.1137544E-3,6.5718167E-3,9.058731E-2,3.7468374E-2,2.8772533E-2,3.908997E-3,1.0822168E-2,8.963749E-3,4.793334E-2,8.862307E-3,1.306491E-2,0E0,3.4649372E-3,1.2400075E-3,5.648068E-3,2.213412E-3,2.3141403E-3,3.8684495E-3,2.075214E-3,2.1398342E-3,4.289684E-3,5.272633E-3,4.9964557E-3,1.050394E-2,8.731998E-3,1.02353655E-2,6.25618E-3,6.4023817E-3,1.7232195E-2,7.209454E-2,5.9295416E-2,9.259584E-2,0E0,0E0,0E0,0E0,0E0,1.9354189E-2,5.3157866E-2,1.1312753E-2,0E0,0E0,1.30676925E-2,5.617362E-2,1.679445E-1,2.6401032E-2,1.607243E-1,6.689642E-2,0E0,5.932735E-3,0E0,0E0,0E0,0E0,0E0,0E0,0E0,0E0,0E0,0E0,0E0,0E0,0E0,0E0,0E0,0E0,0E0,0E0,0E0,0E0,0E0,0E0,0E0,0E0,0E0,0E0,0E0,0E0,0E0,0E0,0E0,0E0,0E0,0E0,0E0,0E0,0E0,0E0,0E0,0E0,0E0,0E0,0E0,0E0,0E0,0E0,0E0,0E0,0E0,0E0,0E0,0E0,0E0,0E0,0E0,0E0,0E0,0E0,0E0,0E0,0E0,0E0,0E0,0E0,0E0,0E0,0E0,0E0,0E0,0E0,0E0,0E0,0E0,0E0,0E0,0E0,0E0,0E0,0E0,0E0,0E0,0E0,0E0,0E0,0E0,0E0,0E0,0E0,0E0],"parents":[2147483647,0,0,1,1,2,2,3,3,4,4,5,5,6,6,7,7,8,8,9,9,10,10,11,11,12,12,13,13,14,14,15,15,16,16,17,17,18,18,19,19,20,20,21,21,22,22,23,23,24,24,25,25,26,26,27,27,28,28,29,29,30,30,31,31,32,32,33,33,34,34,35,35,36,36,37,37,38,38,39,39,40,40,41,41,42,42,43,43,44,44,45,45,46,46,49,49,50,50,51,51,52,52,55,55,56,56,57,57,58,58,59,59,60,60,62,62,63,63,64,64,65,65,66,66,67,67,68,68,69,69,70,70,71,71,72,72,73,73,74,74,75,75,76,76,78,78,79,79,80,80,81,81,82,82,83,83,84,84,85,85,86,86,87,87,88,88,89,89,90,90,91,91,92,92,93,93,94,94,95,95,96,96,97,97,103,103,104,104,105,105,108,108,109,109,110,110,111,111,112,112,113,113,115,115],"right_children":[2,4,6,8,10,12,14,16,18,20,22,24,26,28,30,32,34,36,38,40,42,44,46,48,50,52,54,56,58,60,62,64,66,68,70,72,74,76,78,80,82,84,86,88,90,92,94,-1,-1,96,98,100,102,-1,-1,104,106,108,110,112,114,-1,116,118,120,122,124,126,128,130,132,134,136,138,140,142,144,-1,146,148,150,152,154,156,158,160,162,164,166,168,170,172,174,176,178,180,182,184,-1,-1,-1,-1,-1,186,188,190,-1,-1,192,194,196,198,200,202,-1,204,-1,-1,-1,-1,-1,-1,-1,-1,-1,-1,-1,-1,-1,-1,-1,-1,-1,-1,-1,-1,-1,-1,-1,-1,-1,-1,-1,-1,-1,-1,-1,-1,-1,-1,-1,-1,-1,-1,-1,-1,-1,-1,-1,-1,-1,-1,-1,-1,-1,-1,-1,-1,-1,-1,-1,-1,-1,-1,-1,-1,-1,-1,-1,-1,-1,-1,-1,-1,-1,-1,-1,-1,-1,-1,-1,-1,-1,-1,-1,-1,-1,-1,-1,-1,-1,-1,-1,-1,-1],"split_conditions":[1.1586348E0,8.1963927E-1,1.8752813E0,9.0930235E-1,3.5250154E-1,2.43695E0,9.9527186E-1,5.311871E-1,2.7484047E0,8.1963927E-1,2.7484047E0,-2.2874608E0,2.585693E0,9.7167754E-1,9.556334E-1,-1.2559508E0,9.65657E-1,2.077093E-1,8.5808337E-1,4.4153225E-1,2.2411888E0,8.357859E-1,5.627717E-1,9.7167754E-1,1.7069447E0,9.1887754E-1,1.2578617E-1,8.742138E-1,9.520958E-1,-3.545183E-1,2.9718876E-1,2.9837874E-1,3.8689217E-1,5.848486E-1,1.7947192E0,3.8150197E-1,7.804023E-1,4.6769994E-1,1.1995991E0,2.585693E0,-7.239173E-1,2.089514E0,3.0179873E0,6.4810693E-1,-6.3012755E-1,5E-1,1.3065145E0,5.5444345E-4,1.7195578E-3,-1.7118962E0,9.912088E-1,7.494457E-1,9.677419E-1,-4.3020184E-5,2.4559835E-4,8.117409E-1,9.873684E-1,1.3492408E0,8.742138E-1,9.209979E-1,9.7167754E-1,-2.0137124E-3,7.7665997E-1,9.283912E-1,5.0101215E-1,2.5855234E-1,2.2411888E0,4.284106E-1,2.43695E0,5.9165263E-1,2.3752804E0,1.1022044E-1,-1.1724981E0,9.795082E-1,5.0119615E-1,1.6242323E0,5.010246E-1,-1.2921338E-4,3.7525773E-1,5.0101835E-1,9.9527186E-1,2.8847897E-1,3.830789E-1,1.5450556E0,1.600333E-1,4.0811437E-1,3.7240985E-1,8.625277E-1,8.433671E-1,2.2092695E0,5.0126904E-1,2.3880596E-1,5.010661E-1,4.3164992E-1,6.012793E-1,-1.9507122E0,-1.627824E0,5.5670105E-2,1.0196664E-3,3.974395E-4,1.3254803E-3,2.0760482E-3,9.913319E-4,9.481038E-1,8.507463E-1,9.0537083E-1,1.5537166E-4,5.673283E-4,5.46875E-1,8.4682715E-1,9.171717E-1,-7.587971E-1,-1.4223727E0,9.9527186E-1,-4.1436797E-4,9.795082E-1,-1.2065115E-3,-1.020786E-6,-8.110079E-6,4.5302264E-7,-1.8947676E-5,-2.6963253E-6,-1.6049642E-5,-1.3635893E-6,2.7677147E-6,-5.2687824E-7,6.8281456E-6,-1.283832E-5,2.847946E-4,-6.1260443E-4,1.25118695E-5,2.5592194E-4,1.0566323E-3,1.2039905E-5,-3.4306404E-7,-7.254844E-7,1.5202223E-5,-1.3989908E-6,-3.0579777E-5,-9.1566595E-5,1.1010292E-4,-2.2473744E-6,8.0169855E-5,1.2229101E-5,1.6292708E-4,2.30086E-3,1.4666899E-3,-3.2019425E-6,-0E0,-6.1245323E-6,-7.57785E-5,4.148597E-6,1.48299805E-5,8.3132494E-7,-1.6964465E-5,4.936771E-6,1.1988848E-5,-9.741443E-6,5.5548877E-5,-5.5830033E-6,8.816899E-5,-4.211803E-5,-2.1281051E-4,-4.7522346E-7,9.798761E-6,-2.1371612E-5,-1.736361E-4,1.9654963E-5,6.135571E-5,6.202912E-6,4.6622074E-5,-6.735922E-5,2.7878565E-4,5.6821795E-5,-1.1579923E-5,-1.9416865E-4,1.5193429E-4,9.763692E-4,4.0763716E-4,3.957902E-4,-2.2207692E-4,3.5864176E-4,5.470302E-5,-6.124349E-4,-9.357072E-5,4.1224656E-4,-2.997669E-4,1.5504545E-3,4.930489E-4,-1.0073108E-3,-3.9900953E-4,1.5972569E-3,2.6934217E-3,4.477373E-4,-6.1755284E-4,2.291249E-3,3.856022E-4,-1.6857692E-4,-8.81483E-4,-3.3988935E-4,1.8454711E-3,4.5776158E-4,1.7277683E-3,2.1783581E-4,-3.0770758E-4],"split_indices":[2,9,3,13,2,7,11,11,7,11,7,7,7,13,7,7,2,7,2,11,7,3,2,13,7,3,11,9,11,7,9,2,13,2,3,2,2,2,3,7,7,7,3,11,7,13,3,0,0,7,9,9,13,0,0,13,11,7,9,9,9,0,9,3,14,5,7,2,7,3,7,9,7,11,14,3,14,0,9,14,9,5,5,3,2,5,5,13,5,3,14,11,14,5,11,7,7,11,0,0,0,0,0,11,13,9,0,0,9,9,9,7,7,13,0,13,0,0,0,0,0,0,0,0,0,0,0,0,0,0,0,0,0,0,0,0,0,0,0,0,0,0,0,0,0,0,0,0,0,0,0,0,0,0,0,0,0,0,0,0,0,0,0,0,0,0,0,0,0,0,0,0,0,0,0,0,0,0,0,0,0,0,0,0,0,0,0,0,0,0,0,0,0,0,0,0,0,0,0,0,0,0,0,0,0],"split_type":[0,0,0,0,0,0,0,0,0,0,0,0,0,0,0,0,0,0,0,0,0,0,0,0,0,0,0,0,0,0,0,0,0,0,0,0,0,0,0,0,0,0,0,0,0,0,0,0,0,0,0,0,0,0,0,0,0,0,0,0,0,0,0,0,0,0,0,0,0,0,0,0,0,0,0,0,0,0,0,0,0,0,0,0,0,0,0,0,0,0,0,0,0,0,0,0,0,0,0,0,0,0,0,0,0,0,0,0,0,0,0,0,0,0,0,0,0,0,0,0,0,0,0,0,0,0,0,0,0,0,0,0,0,0,0,0,0,0,0,0,0,0,0,0,0,0,0,0,0,0,0,0,0,0,0,0,0,0,0,0,0,0,0,0,0,0,0,0,0,0,0,0,0,0,0,0,0,0,0,0,0,0,0,0,0,0,0,0,0,0,0,0,0,0,0,0,0,0,0,0,0,0,0,0,0],"sum_hessian":[1.6831872E6,1.676626E6,6.5612417E3,1.3731892E6,3.0343684E5,6.185012E3,3.762295E2,1.2666761E6,1.0651302E5,2.3596308E5,6.7473766E4,6.134076E3,5.093582E1,2.5843903E2,1.1779046E2,6.617398E5,6.049364E5,1.0436083E5,2.1521987E3,1.8668995E5,4.9273113E4,6.64238E4,1.0499708E3,1.359768E1,6.1204785E3,3.5990284E1,1.4945539E1,1.3411684E2,1.2432219E2,9.163768E1,2.6152773E1,9.579979E4,5.6594E5,6.03224E5,1.7124031E3,6.685723E4,3.7503598E4,2.1307769E3,2.142174E1,1.0698232E5,7.970763E4,4.6752645E4,2.5204712E3,3.0637994E4,3.57858E4,8.898427E2,1.6012814E2,5.941518E0,7.6561627E0,5.7075234E3,4.129551E2,1.664628E1,1.9344004E1,7.9593415E0,6.9861975E0,1.00492096E2,3.3624737E1,1.876943E1,1.05552765E2,5.6724304E1,3.491338E1,5.5760136E0,2.057676E1,7.413933E4,2.1660455E4,2.4330878E5,3.2263122E5,5.924057E5,1.081834E4,1.5971656E3,1.1523748E2,3.747906E4,2.9378172E4,3.6407973E4,1.0956245E3,1.7097468E3,4.210301E2,9.972768E0,1.1448972E1,1.035354E5,3.4469246E3,2.7492215E4,5.2215418E4,4.621699E4,5.3565576E2,2.3526865E3,1.6778456E2,2.9806684E4,8.313112E2,1.3833857E4,2.1951943E4,5.584878E1,8.339939E2,1.1366085E2,4.6467297E1,2.4277626E2,5.464747E3,4.041419E2,8.813201E0,1.0803795E1,5.842485E0,9.503877E0,9.840127E0,2.1855444E1,7.863665E1,2.1715715E1,1.190902E1,5.8748903E0,1.2894539E1,7.0136475E1,3.5416286E1,3.754775E1,1.9176552E1,2.6017508E1,8.895874E0,1.1859067E1,8.717693E0,6.567639E4,8.462939E3,3.956154E3,1.77043E4,2.3696733E5,6.3414546E3,3.0326294E5,1.9368283E4,5.7396156E5,1.8444068E4,1.066611E4,1.5222963E2,1.3892852E1,1.5832727E3,1.0838187E2,6.8556113E0,4.2248096E3,3.325425E4,9.063782E3,2.0314389E4,3.47869E4,1.6210753E3,8.8044324E2,2.1518127E2,1.4900939E3,2.1965294E2,1.1974184E2,3.0128824E2,5.638791E0,5.8101807E0,2.28329E4,8.07025E4,3.2660786E3,1.8084595E2,2.4245758E4,3.2464563E3,5.1118E4,1.0974193E3,2.5014738E4,2.120225E4,8.1975464E1,4.536803E2,2.3167402E3,3.594645E1,1.4183951E2,2.594505E1,1.3065448E4,1.6741236E4,7.983679E2,3.2943283E1,1.2876682E4,9.571755E2,2.1134604E4,8.173396E2,1.7953436E1,3.7895348E1,3.1467032E2,5.193236E2,7.9668097E0,1.0569404E2,1.0744851E1,3.5722446E1,3.1572313E1,2.1120395E2,9.592566E1,5.3688213E3,5.9167656E1,3.4497424E2,1.192465E1,9.930793E0,7.683918E0,7.0952736E1,7.837683E0,1.3878032E1,5.7641106E0,7.1304283E0,6.226407E1,7.872409E0,9.006082E0,2.6410204E1,2.6766426E1,1.0781325E1,9.8748665E0,9.301686E0,1.5606624E1,1.0410884E1,5.9364686E0,5.922598E0],"tree_param":{"num_deleted":"0","num_feature":"16","num_nodes":"205","size_leaf_vector":"1"}},{"base_weights":[4.7678316E-7,-1.5706879E-5,4.1692243E-3,-6.977722E-5,5.6376203E-4,1.4326283E-2,1.8122696E-3,-5.9081634E-5,-1.4908432E-3,3.1868007E-4,1.2848274E-3,1.7224707E-2,-1.6437525E-2,3.5599119E-3,-5.0653876E-3,-1.1733046E-5,-3.263642E-4,-5.0543807E-3,1.8671282E-3,3.6447408E-4,-7.1143894E-3,1.2325948E-3,1.3518288E-2,1.3460033E-2,4.188236E-2,-5.302503E-2,9.914066E-3,8.589256E-3,-3.3116544E-4,-1.1165233E-2,3.4963724E-3,-9.463317E-5,2.037924E-4,-2.706585E-4,-6.534889E-3,-1.764293E-3,-7.4320915E-3,3.5179956E-3,-3.564146E-3,5.0004815E-5,1.0014076E-3,-2.7050884E-2,4.6611624E-3,7.772072E-4,2.1723446E-3,7.593243E-3,4.4948567E-2,1.1522578E-3,1.6783126E-2,7.259772E-2,1.1215174E-2,-6.57978E-2,1.6920298E-4,-6.1576365E-4,1.3333386E-3,5.9642834E-3,2.4320388E-2,1.9666053E-2,-1.6056463E-3,-5.896776E-2,-9.6404115E-3,-9.326662E-4,5.2017956E-3,-1.1178763E-4,6.569994E-4,1.3697514E-4,1.3356645E-3,-9.7440214E-5,-1.1963409E-3,-7.4131736E-3,7.6793046E-3,-1.4588303E-3,-3.178374E-2,4.332238E-3,-8.386983E-3,3.2628106E-3,5.287007E-2,-2.3211446E-3,-1.790772E-2,1.2691225E-5,1.0397766E-2,1.3296573E-3,-5.887716E-4,-1.6419409E-3,-2.1540523E-2,2.168389E-3,1.5601368E-3,-5.4209563E-4,9.6775894E-4,1.9875674E-3,9.506863E-3,3.2957632E-4,2.0154351E-2,1.601564E-2,1.0137799E-3,4.2805992E-2,-3.978759E-3,1.4401226E-2,8.864392E-2,1.3744855E-1,4.859491E-2,-3.0570818E-2,2.884517E-2,-8.943779E-2,2.355733E-6,1.303653E-2,-4.558336E-2,-1.5691426E-2,7.115648E-3,-1.1077926E-2,2.9960573E-2,8.9480214E-2,7.71917E-3,-1.03510255E-2,9.077381E-5,-3.2991223E-2,-1.334334E-3,3.6496256E-2,-1.1802865E-2,-8.641255E-3,1.42007135E-2,-1.0783644E-6,-1.3999676E-5,1.2322499E-5,-2.2164E-5,-6.07491E-8,5.365452E-6,1.8054554E-4,1.3415385E-5,-1.5582917E-6,2.0428464E-5,-9.646019E-6,-2.2440849E-5,-1.8291343E-4,-7.348901E-5,7.1003083E-6,6.2780164E-4,-9.908509E-6,-1.7245376E-4,-8.763442E-4,-0E0,-3.3457862E-4,7.902804E-5,-1.4170088E-4,-7.583574E-5,1.6142592E-5,7.781446E-5,1.0802879E-3,2.1832564E-4,-9.3832125E-5,8.979309E-6,-1.4824899E-4,-5.53665E-4,8.5178084E-7,-4.9449507E-5,1.735927E-5,2.4730846E-4,1.3945373E-5,4.828871E-5,-9.205389E-6,2.8953116E-4,-6.506312E-4,-7.6947974E-5,-1.214828E-4,1.0329052E-4,-4.8969643E-5,1.0878667E-5,1.03771945E-5,3.4581513E-5,2.7993758E-5,-1.4763611E-5,9.0032764E-4,8.359863E-5,1.8241935E-4,-1.4506985E-4,3.8618426E-4,6.1823586E-5,-2.6550702E-5,3.665062E-4,1.6525545E-4,1.2848858E-3,-8.952687E-5,2.6673177E-4,2.4636067E-4,5.037227E-5,2.6150479E-3,4.805445E-4,3.2507547E-4,3.2726994E-3,9.420104E-4,1.3710745E-5,-1.0129261E-3,-1.118931E-4,1.0899957E-3,5.9909224E-5,-5.835366E-4,-1.6471184E-3,-7.461505E-5,4.8095742E-4,-1.8590516E-4,-8.351906E-4,1.8565005E-4,-3.4626917E-4,8.1328304E-5,7.5163395E-4,6.20587E-4,-3.2472058E-4,7.257773E-4,2.987736E-4,5.5572146E-4,2.092286E-3,1.08331E-3,3.9169354E-5,-2.2708968E-4,1.1851628E-5,1.3917571E-5,-1.6131447E-4,-1.17251366E-4,-6.135674E-4,7.906349E-4,2.540669E-4,-1.1471333E-4,-3.3939534E-4,9.710859E-5,-2.925973E-4,1.3619971E-3,1.4442013E-4],"categories":[],"categories_nodes":[],"categories_segments":[],"categories_sizes":[],"default_left":[0,0,0,0,0,0,0,0,0,0,0,0,0,0,0,0,0,0,0,0,0,0,0,0,0,0,0,0,0,0,0,0,0,0,0,0,0,0,0,0,0,0,0,0,0,0,0,0,0,0,0,0,0,0,0,0,0,0,0,0,0,0,0,0,0,0,0,0,0,0,0,0,0,0,0,0,0,0,0,0,0,0,0,0,0,0,0,0,0,0,0,0,0,0,0,0,0,0,0,0,0,0,0,0,0,0,0,0,0,0,0,0,0,0,0,0,0,0,0,0,0,0,0,0,0,0,0,0,0,0,0,0,0,0,0,0,0,0,0,0,0,0,0,0,0,0,0,0,0,0,0,0,0,0,0,0,0,0,0,0,0,0,0,0,0,0,0,0,0,0,0,0,0,0,0,0,0,0,0,0,0,0,0,0,0,0,0,0,0,0,0,0,0,0,0,0,0,0,0,0,0,0,0,0,0,0,0,0,0,0,0,0,0,0,0,0,0,0,0,0,0,0,0,0,0,0,0],"id":1,"left_children":[1,3,5,7,9,11,13,15,17,19,21,23,25,27,29,31,33,35,37,39,41,43,45,47,49,51,53,55,57,59,61,63,65,67,69,71,73,75,77,79,81,83,85,87,89,91,93,95,97,99,101,103,-1,105,-1,107,109,111,113,115,117,-1,119,121,123,125,127,129,131,133,135,137,139,141,143,145,147,149,151,153,155,157,159,-1,161,163,-1,165,167,169,171,173,175,177,-1,179,181,183,185,187,189,191,193,195,-1,197,199,201,203,205,207,209,211,213,215,217,-1,219,221,223,225,-1,-1,-1,-1,-1,-1,-1,-1,-1,-1,-1,-1,-1,-1,-1,-1,-1,-1,-1,-1,-1,-1,-1,-1,-1,-1,-1,-1,-1,-1,-1,-1,-1,-1,-1,-1,-1,-1,-1,-1,-1,-1,-1,-1,-1,-1,-1,-1,-1,-1,-1,-1,-1,-1,-1,-1,-1,-1,-1,-1,-1,-1,-1,-1,-1,-1,-1,-1,-1,-1,-1,-1,-1,-1,-1,-1,-1,-1,-1,-1,-1,-1,-1,-1,-1,-1,-1,-1,-1,-1,-1,-1,-1,-1,-1,-1,-1,-1,-1,-1,-1,-1,-1,-1,-1,-1],"loss_changes":[1.1353115E-1,5.2502096E-2,1.556508E-1,2.3284374E-2,2.525964E-2,1.0932866E-1,6.349342E-2,1.9250493E-2,1.3697758E-1,3.6279947E-2,2.3049917E-2,1.0332078E-1,1.0215165E-1,8.252783E-2,5.593682E-2,2.3090906E-2,7.911602E-2,4.336606E-2,5.2827105E-2,2.1240782E-2,1.5341285E-1,1.5431207E-2,2.8045213E-2,3.9617106E-2,1.383551E-1,3.863719E-2,6.560326E-2,7.564171E-2,6.039579E-2,4.4827037E-2,6.0524143E-2,1.2031033E-2,2.7138388E-2,3.63694E-2,2.5414541E-2,2.1095712E-2,3.6242813E-2,5.6402747E-2,2.4288762E-2,2.7341979E-2,1.8305428E-2,1.4256068E-1,1.2562513E-1,6.120952E-3,1.5868694E-2,1.1672282E-2,2.5640208E-2,4.4741742E-2,1.2969199E-1,1.1096233E-1,5.5190027E-2,5.90391E-2,0E0,3.474245E-2,0E0,3.928421E-2,5.265756E-2,1.1737117E-1,3.3219125E-2,2.294489E-2,6.045235E-2,0E0,5.438564E-2,2.1755379E-2,1.8559536E-2,1.4702746E-2,6.2096957E-2,1.05572445E-2,9.354372E-3,1.9699246E-2,3.6470026E-2,1.8783959E-2,2.9945664E-2,1.6719444E-2,2.0802528E-2,2.732288E-2,2.7702287E-2,2.1009868E-2,1.6511973E-2,1.6622338E-2,2.261001E-2,1.3819944E-2,2.477364E-2,0E0,1.1225327E-1,3.1152934E-2,0E0,1.5447674E-2,4.4625495E-3,1.1815101E-2,4.796476E-2,1.5087518E-2,7.9393145E-3,3.945287E-3,0E0,4.0861115E-2,1.62806E-2,4.4661984E-2,1.4675538E-1,2.8273767E-1,7.43943E-2,2.4011597E-2,7.600042E-2,4.9216762E-2,0E0,2.229312E-2,8.270897E-3,3.1881325E-2,3.301256E-2,3.554121E-2,3.4894213E-2,7.028815E-2,4.372681E-2,3.4638166E-2,2.6369883E-2,4.781523E-3,0E0,1.0917675E-2,2.160357E-2,4.442025E-2,5.8083143E-2,0E0,0E0,0E0,0E0,0E0,0E0,0E0,0E0,0E0,0E0,0E0,0E0,0E0,0E0,0E0,0E0,0E0,0E0,0E0,0E0,0E0,0E0,0E0,0E0,0E0,0E0,0E0,0E0,0E0,0E0,0E0,0E0,0E0,0E0,0E0,0E0,0E0,0E0,0E0,0E0,0E0,0E0,0E0,0E0,0E0,0E0,0E0,0E0,0E0,0E0,0E0,0E0,0E0,0E0,0E0,0E0,0E0,0E0,0E0,0E0,0E0,0E0,0E0,0E0,0E0,0E0,0E0,0E0,0E0,0E0,0E0,0E0,0E0,0E0,0E0,0E0,0E0,0E0,0E0,0E0,0E0,0E0,0E0,0E0,0E0,0E0,0E0,0E0,0E0,0E0,0E0,0E0,0E0,0E0,0E0,0E0,0E0,0E0,0E0,0E0,0E0,0E0,0E0,0E0,0E0,0E0],"parents":[2147483647,0,0,1,1,2,2,3,3,4,4,5,5,6,6,7,7,8,8,9,9,10,10,11,11,12,12,13,13,14,14,15,15,16,16,17,17,18,18,19,19,20,20,21,21,22,22,23,23,24,24,25,25,26,26,27,27,28,28,29,29,30,30,31,31,32,32,33,33,34,34,35,35,36,36,37,37,38,38,39,39,40,40,41,41,42,42,43,43,44,44,45,45,46,46,47,47,48,48,49,49,50,50,51,51,53,53,55,55,56,56,57,57,58,58,59,59,60,60,62,62,63,63,64,64,65,65,66,66,67,67,68,68,69,69,70,70,71,71,72,72,73,73,74,74,75,75,76,76,77,77,78,78,79,79,80,80,81,81,82,82,84,84,85,85,87,87,88,88,89,89,90,90,91,91,92,92,93,93,95,95,96,96,97,97,98,98,99,99,100,100,101,101,102,102,103,103,105,105,106,106,107,107,108,108,109,109,110,110,111,111,112,112,113,113,114,114,115,115,117,117,118,118,119,119,120,120],"right_children":[2,4,6,8,10,12,14,16,18,20,22,24,26,28,30,32,34,36,38,40,42,44,46,48,50,52,54,56,58,60,62,64,66,68,70,72,74,76,78,80,82,84,86,88,90,92,94,96,98,100,102,104,-1,106,-1,108,110,112,114,116,118,-1,120,122,124,126,128,130,132,134,136,138,140,142,144,146,148,150,152,154,156,158,160,-1,162,164,-1,166,168,170,172,174,176,178,-1,180,182,184,186,188,190,192,194,196,-1,198,200,202,204,206,208,210,212,214,216,218,-1,220,222,224,226,-1,-1,-1,-1,-1,-1,-1,-1,-1,-1,-1,-1,-1,-1,-1,-1,-1,-1,-1,-1,-1,-1,-1,-1,-1,-1,-1,-1,-1,-1,-1,-1,-1,-1,-1,-1,-1,-1,-1,-1,-1,-1,-1,-1,-1,-1,-1,-1,-1,-1,-1,-1,-1,-1,-1,-1,-1,-1,-1,-1,-1,-1,-1,-1,-1,-1,-1,-1,-1,-1,-1,-1,-1,-1,-1,-1,-1,-1,-1,-1,-1,-1,-1,-1,-1,-1,-1,-1,-1,-1,-1,-1,-1,-1,-1,-1,-1,-1,-1,-1,-1,-1,-1,-1,-1,-1],"split_conditions":[1.1586348E0,9.13242E-1,-1.2205961E0,5.983E1,4.851826E-10,7.3682824E-9,1.1332568E0,1.5824088E0,4.1037735E-1,4.08E1,4.773E1,1.9227858E0,-1.730228E0,4.773E1,9.795082E-1,1.1048656E0,6.1015904E-1,9.6081054E-1,-3.7021548E-1,1.936E1,5.010309E-1,1.065071E0,9.677419E-1,8.0158395E-1,2.4724946E0,3.0120483E-1,9.795082E-1,4.545E1,1.6706444E-2,3.412E1,9.209979E-1,5.2834725E-1,3.94832E-1,2.222E1,1.7947192E0,9.873684E-1,2.6229507E-1,2.6822248E0,1.4535077E0,8.5808337E-1,9.520958E-1,5.2834725E-1,5.368E1,3.2258064E-2,9.65657E-1,1.7924932E-9,1.1238012E0,8.791209E-3,3.8353543E-9,1.2631579E-2,9.7167754E-1,9.8329353E-1,1.6920298E-4,2.777778E-1,1.3333386E-3,-1.0509295E0,-9.4033074E-1,-1.1072067E0,5.368E1,3.347E1,3.759E1,-9.326662E-4,5.532655E-10,3.513E1,1.2069566E0,1.731411E-10,1.764706E-1,2.172E1,8.352941E-1,3.513E1,9.65657E-1,5.1048845E-9,1.3662805E-1,-2.540914E0,6.646E1,6.8708974E-1,1.4529915E-1,4.1904522E-10,9.7167754E-1,1.915E1,7.787404E-1,3.291E1,3.908E1,-1.6419409E-3,4.016064E-2,9.508298E-1,1.5601368E-3,-1.3390031E0,3.245E1,2.3026104E0,-2.1148572E0,9.65657E-1,6.090535E-1,9.756098E-1,1.0137799E-3,3.291E1,9.873684E-1,9.5604396E-1,5.983E1,4.773E1,-1.730228E0,-2.4384704E0,8.27922E-11,4.0323453E-8,2.355733E-6,5.5670105E-2,7.962963E-1,9.5604396E-1,3.0179873E0,8.857716E-1,3.2258064E-2,-1.163291E0,1.397244E-10,9.941312E-10,9.873684E-1,2.1719074E0,-1.334334E-3,1.006459E0,2.0150795E0,9.574468E-1,5.010101E-1,-1.0783644E-6,-1.3999676E-5,1.2322499E-5,-2.2164E-5,-6.07491E-8,5.365452E-6,1.8054554E-4,1.3415385E-5,-1.5582917E-6,2.0428464E-5,-9.646019E-6,-2.2440849E-5,-1.8291343E-4,-7.348901E-5,7.1003083E-6,6.2780164E-4,-9.908509E-6,-1.7245376E-4,-8.763442E-4,-0E0,-3.3457862E-4,7.902804E-5,-1.4170088E-4,-7.583574E-5,1.6142592E-5,7.781446E-5,1.0802879E-3,2.1832564E-4,-9.3832125E-5,8.979309E-6,-1.4824899E-4,-5.53665E-4,8.5178084E-7,-4.9449507E-5,1.735927E-5,2.4730846E-4,1.3945373E-5,4.828871E-5,-9.205389E-6,2.8953116E-4,-6.506312E-4,-7.6947974E-5,-1.214828E-4,1.0329052E-4,-4.8969643E-5,1.0878667E-5,1.03771945E-5,3.4581513E-5,2.7993758E-5,-1.4763611E-5,9.0032764E-4,8.359863E-5,1.8241935E-4,-1.4506985E-4,3.8618426E-4,6.1823586E-5,-2.6550702E-5,3.665062E-4,1.6525545E-4,1.2848858E-3,-8.952687E-5,2.6673177E-4,2.4636067E-4,5.037227E-5,2.6150479E-3,4.805445E-4,3.2507547E-4,3.2726994E-3,9.420104E-4,1.3710745E-5,-1.0129261E-3,-1.118931E-4,1.0899957E-3,5.9909224E-5,-5.835366E-4,-1.6471184E-3,-7.461505E-5,4.8095742E-4,-1.8590516E-4,-8.351906E-4,1.8565005E-4,-3.4626917E-4,8.1328304E-5,7.5163395E-4,6.20587E-4,-3.2472058E-4,7.257773E-4,2.987736E-4,5.5572146E-4,2.092286E-3,1.08331E-3,3.9169354E-5,-2.2708968E-4,1.1851628E-5,1.3917571E-5,-1.6131447E-4,-1.17251366E-4,-6.135674E-4,7.906349E-4,2.540669E-4,-1.1471333E-4,-3.3939534E-4,9.710859E-5,-2.925973E-4,1.3619971E-3,1.4442013E-4],"split_indices":[2,10,0,6,1,1,0,0,10,6,6,3,0,6,10,3,2,3,0,6,15,3,13,3,3,12,13,6,12,6,13,2,2,6,3,12,12,3,3,2,12,2,6,12,2,1,3,12,1,12,10,13,0,12,0,0,0,0,6,6,6,0,1,6,0,1,10,6,12,6,2,1,0,0,6,10,12,1,12,6,3,6,6,0,12,3,0,0,6,0,0,2,12,13,0,6,13,13,6,6,0,0,1,1,0,12,13,13,3,10,12,0,1,1,13,0,0,3,0,3,15,0,0,0,0,0,0,0,0,0,0,0,0,0,0,0,0,0,0,0,0,0,0,0,0,0,0,0,0,0,0,0,0,0,0,0,0,0,0,0,0,0,0,0,0,0,0,0,0,0,0,0,0,0,0,0,0,0,0,0,0,0,0,0,0,0,0,0,0,0,0,0,0,0,0,0,0,0,0,0,0,0,0,0,0,0,0,0,0,0,0,0,0,0,0,0,0,0,0,0,0,0,0,0,0,0,0],"split_type":[0,0,0,0,0,0,0,0,0,0,0,0,0,0,0,0,0,0,0,0,0,0,0,0,0,0,0,0,0,0,0,0,0,0,0,0,0,0,0,0,0,0,0,0,0,0,0,0,0,0,0,0,0,0,0,0,0,0,0,0,0,0,0,0,0,0,0,0,0,0,0,0,0,0,0,0,0,0,0,0,0,0,0,0,0,0,0,0,0,0,0,0,0,0,0,0,0,0,0,0,0,0,0,0,0,0,0,0,0,0,0,0,0,0,0,0,0,0,0,0,0,0,0,0,0,0,0,0,0,0,0,0,0,0,0,0,0,0,0,0,0,0,0,0,0,0,0,0,0,0,0,0,0,0,0,0,0,0,0,0,0,0,0,0,0,0,0,0,0,0,0,0,0,0,0,0,0,0,0,0,0,0,0,0,0,0,0,0,0,0,0,0,0,0,0,0,0,0,0,0,0,0,0,0,0,0,0,0,0,0,0,0,0,0,0,0,0,0,0,0,0,0,0,0,0,0,0],"sum_hessian":[1.6823004E6,1.675793E6,6.5072754E3,1.5327831E6,1.4300995E5,1.2246449E3,5.282631E3,1.5213389E6,1.1444226E4,1.0674148E5,3.626848E4,1.1195752E3,1.050697E2,4.2133438E3,1.0692871E3,1.2924199E6,2.2891897E5,5.5532583E3,5.890967E3,1.0608929E5,6.5218915E2,3.6115316E4,1.5316676E2,9.720177E2,1.475575E2,4.3977684E1,6.109202E1,1.8385885E3,2.3747551E3,6.249124E2,4.4437463E2,9.334238E5,3.589961E5,2.268849E5,2.0340581E3,2.3313367E3,3.2219214E3,4.5190024E3,1.3719648E3,7.103213E4,3.5057152E4,2.422699E2,4.0991925E2,2.4333123E4,1.1782191E4,1.2944035E2,2.372641E1,2.0726437E2,7.647533E2,7.335937E1,7.419813E1,3.704077E1,6.936915E0,5.5501286E1,5.5907326E0,1.5765043E3,2.6208432E2,1.4161034E2,2.2331448E3,1.8762121E1,6.061503E2,8.824707E0,4.3554993E2,9.1260656E5,2.0817275E4,3.3899206E5,2.0004014E4,1.9112903E5,3.5755875E4,1.9163779E3,1.1768012E2,2.3084692E3,2.2867552E1,2.4115742E2,2.980764E3,4.4962754E3,2.2726665E1,1.2634325E3,1.08532295E2,7.077803E4,2.5410239E2,2.9063031E4,5.9941216E3,1.1273306E1,2.309966E2,4.02238E2,7.6812267E0,3.0655186E3,2.1267605E4,1.1494154E4,2.8803757E2,8.2641815E1,4.6798546E1,1.395833E1,9.768079E0,2.263443E1,1.8462994E2,7.407173E2,2.4036013E1,1.929735E1,5.4062016E1,2.1806503E1,5.2391624E1,2.7274187E1,9.7665825E0,4.2619705E1,1.2881582E1,7.9016556E1,1.4974877E3,3.5777733E1,2.2630658E2,2.0274506E1,1.2133584E2,3.633053E2,1.8698394E3,1.2905966E1,5.8561554E0,2.6732037E1,5.794183E2,1.7124109E2,2.6430884E2,8.930161E5,1.9590416E4,1.819215E4,2.6251245E3,2.3138936E5,1.0760272E5,3.323521E2,1.967166E4,1.8786131E5,3.2677273E3,2.2170791E4,1.3585082E4,2.8622815E2,1.6301499E3,1.0181901E2,1.586111E1,2.1988467E3,1.09622536E2,9.890514E0,1.2977038E1,1.4953272E1,2.2620415E2,1.1695121E3,1.811252E3,2.789864E3,1.7064114E3,1.0780799E1,1.1945868E1,4.5708173E2,8.0635077E2,9.071788E1,1.7814417E1,6.979838E4,9.796521E2,1.3455612E2,1.1954626E2,2.722E4,1.8430306E3,5.953354E3,4.076726E1,7.377028E1,1.5722632E2,1.3727235E2,2.6496567E2,8.9546924E2,2.1700493E3,2.007663E4,1.1909729E3,1.045165E4,1.0425039E3,1.0705196E1,2.7733237E2,3.7883415E1,4.47584E1,2.5834942E1,2.0963602E1,5.991205E0,7.967125E0,1.5846354E1,6.788076E0,1.6373096E2,2.089898E1,4.690584E2,2.716589E2,6.3318205E0,1.7704193E1,1.0764761E1,8.53259E0,3.3288273E1,2.0773745E1,5.875579E0,1.5930924E1,1.439096E1,3.8000668E1,1.4874724E1,1.2399463E1,2.473886E1,1.7880846E1,5.99471E0,6.8868723E0,2.2962698E1,5.605386E1,1.4868916E3,1.0596097E1,6.9477644E0,2.8829971E1,3.3493755E1,1.9281282E2,1.369242E1,6.582085E0,5.903044E0,1.1543279E2,2.0919571E2,1.541096E2,1.7339242E3,1.3591527E2,5.9716654E0,6.9343014E0,8.835592E0,1.7896446E1,5.0697485E2,7.244341E1,8.234217E1,8.8898926E1,5.590003E0,2.587188E2],"tree_param":{"num_deleted":"0","num_feature":"16","num_nodes":"227","size_leaf_vector":"1"}},{"base_weights":[8.20726E-8,-1.8857534E-5,4.8466665E-3,-1.16643794E-4,1.9545776E-4,4.4223024E-3,3.4096E-2,3.245605E-3,-1.2475745E-4,1.2602935E-4,8.342795E-4,8.556971E-3,1.5901851E-3,8.9014895E-2,1.9005112E-2,9.959793E-4,3.0251328E-2,-1.0735763E-4,-2.8575351E-3,1.357133E-4,-2.4395532E-3,2.334032E-3,6.5511075E-4,4.4644577E-3,2.0263705E-2,2.134334E-3,-2.574482E-2,4.934441E-4,1.1911831E-1,-5.161109E-3,3.470693E-2,4.335149E-3,-1.0170406E-2,6.4186766E-3,5.3217478E-2,4.42786E-4,-1.3062276E-4,-2.2098569E-3,-1.250491E-2,5.2202304E-5,3.602942E-4,-1.5062054E-3,-1.8817062E-3,2.1801866E-3,2.0475183E-2,7.1632426E-4,-1.7521733E-3,6.3763116E-3,-5.0974824E-3,1.5406868E-3,3.066481E-2,-1.042469E-3,5.191745E-3,-4.5412887E-2,2.1765279E-3,1.7092522E-3,1.0880434E-3,-2.7741116E-2,5.3107366E-4,1.6285256E-2,6.684349E-2,-3.7103267E-3,1.296438E-2,-3.7669927E-2,-3.7291562E-3,1.3000901E-2,-1.4219746E-2,7.3326774E-2,2.098724E-2,-4.6718687E-6,1.8337009E-3,-1.01300495E-4,-3.590865E-4,-3.743739E-3,9.718034E-3,-1.55514795E-2,8.807727E-3,-7.837949E-5,2.0672508E-4,6.259021E-4,1.4655455E-4,2.7566118E-4,-8.026438E-3,2.538268E-3,-1.3756686E-2,1.0062105E-3,4.527354E-3,4.3480314E-4,1.5114255E-3,7.272732E-4,-1.0927558E-2,5.2297427E-3,5.3649344E-2,-3.253957E-3,-4.804645E-2,-3.053139E-2,6.7567057E-3,2.2002297E-2,4.7863267E-2,5.166271E-3,-4.534704E-3,1.4536207E-2,3.8243264E-3,-1.6293756E-5,-5.8096424E-2,4.4694226E-2,-4.256882E-2,-2.2451342E-5,-3.8013097E-2,3.337998E-2,-2.4920932E-4,1.087613E-3,4.941248E-4,3.0635496E-5,-1.4652625E-4,1.16125084E-4,3.625012E-4,-1.0577546E-3,-2.1470395E-4,7.2625284E-5,-1.7569543E-4,4.579724E-4,-4.163175E-5,7.798488E-6,-6.296045E-4,4.388024E-4,1.2960782E-3,-4.3707223E-5,4.8020575E-4,5.068497E-6,-1.0939758E-5,1.2997761E-5,4.0159044E-5,-1.2857143E-6,1.1942319E-5,2.939719E-5,-4.938667E-6,-3.505468E-5,-2.782072E-4,2.734889E-4,1.4412458E-5,9.284163E-5,-2.176599E-4,5.431095E-4,-3.1000373E-4,2.1325772E-4,-9.699237E-7,1.1093795E-6,5.009243E-6,6.484694E-6,8.555121E-5,-3.5827412E-4,1.8971089E-6,-1.2193584E-5,1.3950568E-4,-6.415317E-5,-3.6234685E-4,2.6944355E-5,9.4887124E-5,-7.110166E-4,-2.389121E-5,1.848328E-4,-3.932487E-4,7.670349E-6,-9.062704E-6,3.6295947E-5,1.0050349E-5,-5.271424E-5,3.0589872E-5,4.3489486E-5,-1.8465273E-4,4.4045675E-5,1.9704866E-4,-0E0,1.2803392E-3,-1.2978619E-4,9.788554E-5,-3.0381963E-4,-8.543219E-4,-7.6100056E-5,-1.0675777E-3,3.0693834E-4,-6.9810962E-6,5.138341E-4,-2.6503509E-5,-1.7160116E-4,6.860501E-4,7.713069E-5,-1.3332734E-4,-2.0595848E-4,-2.5661593E-5,1.9901725E-4,-5.605521E-4,6.516473E-5,-3.6444344E-5,-8.804391E-4,-3.626377E-4,1.0453481E-4,1.0710891E-3,-1.4582009E-4,-9.044102E-4,-2.1472051E-4,-6.742525E-4,5.787281E-4,2.9212487E-4],"categories":[],"categories_nodes":[],"categories_segments":[],"categories_sizes":[],"default_left":[0,0,0,0,0,0,0,0,0,0,0,0,0,0,0,0,0,0,0,0,0,0,0,0,0,0,0,0,0,0,0,0,0,0,0,0,0,0,0,0,0,0,0,0,0,0,0,0,0,0,0,0,0,0,0,0,0,0,0,0,0,0,0,0,0,0,0,0,0,0,0,0,0,0,0,0,0,0,0,0,0,0,0,0,0,0,0,0,0,0,0,0,0,0,0,0,0,0,0,0,0,0,0,0,0,0,0,0,0,0,0,0,0,0,0,0,0,0,0,0,0,0,0,0,0,0,0,0,0,0,0,0,0,0,0,0,0,0,0,0,0,0,0,0,0,0,0,0,0,0,0,0,0,0,0,0,0,0,0,0,0,0,0,0,0,0,0,0,0,0,0,0,0,0,0,0,0,0,0,0,0,0,0,0,0,0,0,0,0,0,0,0,0,0,0,0,0,0,0,0,0,0,0,0,0],"id":2,"left_children":[1,3,5,7,9,11,13,15,17,19,21,23,25,27,29,31,33,35,37,39,41,43,45,47,49,51,53,-1,55,57,59,61,63,65,67,69,71,73,75,77,79,-1,81,83,85,87,89,91,93,95,97,99,101,103,105,-1,-1,107,-1,109,111,113,115,117,119,121,123,125,127,129,131,133,135,137,139,141,143,145,147,149,151,153,155,157,159,-1,161,163,165,167,169,171,173,175,177,179,181,183,185,187,189,191,193,-1,195,197,199,-1,201,203,-1,-1,-1,-1,-1,-1,-1,-1,-1,-1,-1,-1,-1,-1,-1,-1,-1,-1,-1,-1,-1,-1,-1,-1,-1,-1,-1,-1,-1,-1,-1,-1,-1,-1,-1,-1,-1,-1,-1,-1,-1,-1,-1,-1,-1,-1,-1,-1,-1,-1,-1,-1,-1,-1,-1,-1,-1,-1,-1,-1,-1,-1,-1,-1,-1,-1,-1,-1,-1,-1,-1,-1,-1,-1,-1,-1,-1,-1,-1,-1,-1,-1,-1,-1,-1,-1,-1,-1,-1,-1,-1,-1,-1,-1,-1],"loss_changes":[1.544508E-1,3.511577E-2,8.093488E-2,3.1364925E-2,2.327611E-2,7.5520754E-2,7.59175E-2,1.6787858E-1,5.4557875E-2,1.1746149E-2,1.3800539E-2,1.2546255E-1,5.6848243E-2,2.605009E-2,2.8290877E-2,9.525114E-2,1.1573005E-1,1.459661E-2,4.5231633E-2,8.844277E-3,1.19617E-1,1.5111402E-2,6.7654215E-3,3.5576075E-2,1.3194588E-1,3.6549024E-2,4.1328374E-2,0E0,1.5773624E-3,3.2485235E-2,2.5577419E-2,1.3672088E-1,1.0373539E-1,1.4296219E-2,6.872541E-2,2.8809179E-2,7.3274933E-3,1.24449596E-1,2.969905E-2,6.9402857E-3,7.2515886E-3,0E0,2.352485E-2,3.0967338E-2,4.465091E-2,1.0018459E-2,2.594427E-2,8.7326124E-2,2.5149444E-2,4.0546425E-2,6.406468E-2,3.995561E-2,2.4327613E-2,2.40466E-2,5.9563365E-2,0E0,0E0,5.041088E-3,0E0,1.8708972E-2,7.3178187E-3,5.3238418E-2,5.4092064E-2,1.0870735E-1,4.99407E-2,3.2859646E-2,1.4553133E-2,8.003661E-2,1.9612677E-2,1.3274748E-2,1.2645971E-2,4.9478626E-3,1.6641289E-2,9.854977E-2,8.459017E-2,2.2314169E-2,7.087189E-2,5.088554E-3,3.7414907E-3,3.3362474E-2,2.0500341E-2,1.8917287E-2,2.7223341E-2,8.821268E-3,6.2456083E-2,0E0,1.4601243E-2,7.7338764E-3,1.1814944E-2,8.133789E-3,1.523676E-2,2.7705677E-2,1.07183956E-1,2.6258178E-2,5.3841453E-3,4.625479E-2,2.871355E-2,1.4368877E-1,7.911894E-2,1.2760347E-2,3.5368867E-2,2.7750414E-2,1.7720586E-2,0E0,1.2320064E-2,2.4343621E-2,1.3819676E-2,0E0,4.1672233E-3,1.7245375E-3,0E0,0E0,0E0,0E0,0E0,0E0,0E0,0E0,0E0,0E0,0E0,0E0,0E0,0E0,0E0,0E0,0E0,0E0,0E0,0E0,0E0,0E0,0E0,0E0,0E0,0E0,0E0,0E0,0E0,0E0,0E0,0E0,0E0,0E0,0E0,0E0,0E0,0E0,0E0,0E0,0E0,0E0,0E0,0E0,0E0,0E0,0E0,0E0,0E0,0E0,0E0,0E0,0E0,0E0,0E0,0E0,0E0,0E0,0E0,0E0,0E0,0E0,0E0,0E0,0E0,0E0,0E0,0E0,0E0,0E0,0E0,0E0,0E0,0E0,0E0,0E0,0E0,0E0,0E0,0E0,0E0,0E0,0E0,0E0,0E0,0E0,0E0,0E0,0E0,0E0,0E0,0E0,0E0,0E0,0E0],"parents":[2147483647,0,0,1,1,2,2,3,3,4,4,5,5,6,6,7,7,8,8,9,9,10,10,11,11,12,12,13,13,14,14,15,15,16,16,17,17,18,18,19,19,20,20,21,21,22,22,23,23,24,24,25,25,26,26,28,28,29,29,30,30,31,31,32,32,33,33,34,34,35,35,36,36,37,37,38,38,39,39,40,40,42,42,43,43,44,44,45,45,46,46,47,47,48,48,49,49,50,50,51,51,52,52,53,53,54,54,57,57,59,59,60,60,61,61,62,62,63,63,64,64,65,65,66,66,67,67,68,68,69,69,70,70,71,71,72,72,73,73,74,74,75,75,76,76,77,77,78,78,79,79,80,80,81,81,82,82,83,83,84,84,86,86,87,87,88,88,89,89,90,90,91,91,92,92,93,93,94,94,95,95,96,96,97,97,98,98,99,99,100,100,101,101,102,102,104,104,105,105,106,106,108,108,109,109],"right_children":[2,4,6,8,10,12,14,16,18,20,22,24,26,28,30,32,34,36,38,40,42,44,46,48,50,52,54,-1,56,58,60,62,64,66,68,70,72,74,76,78,80,-1,82,84,86,88,90,92,94,96,98,100,102,104,106,-1,-1,108,-1,110,112,114,116,118,120,122,124,126,128,130,132,134,136,138,140,142,144,146,148,150,152,154,156,158,160,-1,162,164,166,168,170,172,174,176,178,180,182,184,186,188,190,192,194,-1,196,198,200,-1,202,204,-1,-1,-1,-1,-1,-1,-1,-1,-1,-1,-1,-1,-1,-1,-1,-1,-1,-1,-1,-1,-1,-1,-1,-1,-1,-1,-1,-1,-1,-1,-1,-1,-1,-1,-1,-1,-1,-1,-1,-1,-1,-1,-1,-1,-1,-1,-1,-1,-1,-1,-1,-1,-1,-1,-1,-1,-1,-1,-1,-1,-1,-1,-1,-1,-1,-1,-1,-1,-1,-1,-1,-1,-1,-1,-1,-1,-1,-1,-1,-1,-1,-1,-1,-1,-1,-1,-1,-1,-1,-1,-1,-1,-1,-1,-1],"split_conditions":[1.0210142E0,6.8708974E-1,2.43695E0,-3.2058018E-1,9.209979E-1,1.6470589E-1,2.4941022E0,2.3752804E0,5.983E1,6.646E1,7.1278825E-2,8.117409E-1,2.089514E0,1.4925373E-1,-1.3111551E-1,1.7069447E0,5.011468E-1,-1.2106008E-1,2.3297508E0,2.7550748E-1,4.77327E-3,5.983E1,4.228E1,1.0189189E0,4.228E1,6.7540324E-1,1.764706E-1,4.934441E-4,5.155131E-1,3.412E1,6.4040405E-1,5.983E1,1.7247101E0,2.544643E-1,1.2970711E-1,1.4564679E0,9.886377E-2,1.7069447E0,4.9367672E-1,5E-1,4.4537815E-1,-1.5062054E-3,6.8708974E-1,4.08E1,2.4390243E-2,2.8394774E-1,5.3659346E-2,9.052512E-1,7.728395E-1,1.8410042E-1,4.9745035E-1,2.575E1,7.494457E-1,8.791209E-3,2.3297508E0,1.7092522E-3,1.0880434E-3,2.353E1,5.3107366E-4,4.6103895E-1,9.481038E-1,3.908E1,1.5337111E0,6.7307696E-2,2.1402128E0,4.0811437E-1,5.4285717E-1,5.368E1,3.2461873E-1,2.771E1,5.0117373E-1,4.773E1,8.791209E-3,1.5337111E0,5.010309E-1,5.1896207E-2,6.646E1,-3.2058018E-1,8.742138E-1,5.983E1,-3.2058018E-1,2.3297508E0,2.3297508E0,2.998E1,5.010309E-1,1.0062105E-3,1.5782017E0,1.375829E0,4.6502057E-1,7.728395E-1,-1.445251E0,1.0251046E-1,4.773E1,3.2461873E-1,6.4810693E-1,1.2578617E-1,9.13242E-1,-3.9668897E-1,4.773E1,6.2857145E-1,3.245E1,9.912088E-1,3.3346313E-1,-1.6293756E-5,4.5182236E-2,6.519916E-1,3.090129E-1,-2.2451342E-5,4.77327E-3,1.3747229E-1,-2.4920932E-4,1.087613E-3,4.941248E-4,3.0635496E-5,-1.4652625E-4,1.16125084E-4,3.625012E-4,-1.0577546E-3,-2.1470395E-4,7.2625284E-5,-1.7569543E-4,4.579724E-4,-4.163175E-5,7.798488E-6,-6.296045E-4,4.388024E-4,1.2960782E-3,-4.3707223E-5,4.8020575E-4,5.068497E-6,-1.0939758E-5,1.2997761E-5,4.0159044E-5,-1.2857143E-6,1.1942319E-5,2.939719E-5,-4.938667E-6,-3.505468E-5,-2.782072E-4,2.734889E-4,1.4412458E-5,9.284163E-5,-2.176599E-4,5.431095E-4,-3.1000373E-4,2.1325772E-4,-9.699237E-7,1.1093795E-6,5.009243E-6,6.484694E-6,8.555121E-5,-3.5827412E-4,1.8971089E-6,-1.2193584E-5,1.3950568E-4,-6.415317E-5,-3.6234685E-4,2.6944355E-5,9.4887124E-5,-7.110166E-4,-2.389121E-5,1.848328E-4,-3.932487E-4,7.670349E-6,-9.062704E-6,3.6295947E-5,1.0050349E-5,-5.271424E-5,3.0589872E-5,4.3489486E-5,-1.8465273E-4,4.4045675E-5,1.9704866E-4,-0E0,1.2803392E-3,-1.2978619E-4,9.788554E-5,-3.0381963E-4,-8.543219E-4,-7.6100056E-5,-1.0675777E-3,3.0693834E-4,-6.9810962E-6,5.138341E-4,-2.6503509E-5,-1.7160116E-4,6.860501E-4,7.713069E-5,-1.3332734E-4,-2.0595848E-4,-2.5661593E-5,1.9901725E-4,-5.605521E-4,6.516473E-5,-3.6444344E-5,-8.804391E-4,-3.626377E-4,1.0453481E-4,1.0710891E-3,-1.4582009E-4,-9.044102E-4,-2.1472051E-4,-6.742525E-4,5.787281E-4,2.9212487E-4],"split_indices":[5,9,7,4,11,12,7,7,6,6,12,11,7,11,4,7,14,4,7,5,11,6,6,7,6,9,11,0,9,6,9,6,7,12,12,7,4,7,5,11,12,0,12,6,12,5,4,7,11,9,7,6,9,11,7,0,0,6,0,9,9,6,7,12,7,5,9,6,11,6,14,6,9,7,14,9,6,4,9,6,4,7,7,6,14,0,7,7,12,9,7,12,6,11,9,9,11,7,6,9,6,11,7,0,4,9,11,0,12,9,0,0,0,0,0,0,0,0,0,0,0,0,0,0,0,0,0,0,0,0,0,0,0,0,0,0,0,0,0,0,0,0,0,0,0,0,0,0,0,0,0,0,0,0,0,0,0,0,0,0,0,0,0,0,0,0,0,0,0,0,0,0,0,0,0,0,0,0,0,0,0,0,0,0,0,0,0,0,0,0,0,0,0,0,0,0,0,0,0,0,0,0,0,0,0],"split_type":[0,0,0,0,0,0,0,0,0,0,0,0,0,0,0,0,0,0,0,0,0,0,0,0,0,0,0,0,0,0,0,0,0,0,0,0,0,0,0,0,0,0,0,0,0,0,0,0,0,0,0,0,0,0,0,0,0,0,0,0,0,0,0,0,0,0,0,0,0,0,0,0,0,0,0,0,0,0,0,0,0,0,0,0,0,0,0,0,0,0,0,0,0,0,0,0,0,0,0,0,0,0,0,0,0,0,0,0,0,0,0,0,0,0,0,0,0,0,0,0,0,0,0,0,0,0,0,0,0,0,0,0,0,0,0,0,0,0,0,0,0,0,0,0,0,0,0,0,0,0,0,0,0,0,0,0,0,0,0,0,0,0,0,0,0,0,0,0,0,0,0,0,0,0,0,0,0,0,0,0,0,0,0,0,0,0,0,0,0,0,0,0,0,0,0,0,0,0,0,0,0,0,0,0,0],"sum_hessian":[1.6821826E6,1.6756331E6,6.549422E3,1.1506574E6,5.249758E5,6.4564126E3,9.300915E1,2.767312E3,1.1478901E6,4.7352522E5,5.145056E4,2.6232012E3,3.8332117E3,1.9578182E1,7.343097E1,2.5551147E3,2.121972E2,1.1406309E6,7.2591772E3,4.7174806E5,1.7771617E3,5.4853647E3,4.596519E4,1.9445648E3,6.7863635E2,3.758989E3,7.422267E1,7.9205155E0,1.1657666E1,2.880561E1,4.4625355E1,1.9676465E3,5.8746844E2,1.04518265E2,1.0767893E2,4.626485E4,1.094366E6,6.8036655E3,4.555117E2,3.4390328E5,1.2784479E5,7.7003975E0,1.7694614E3,5.4400537E3,4.5310905E1,4.482887E4,1.1363228E3,1.6213466E3,3.2321826E2,2.427778E2,4.3585855E2,1.8423069E3,1.916682E3,4.359458E1,3.0628088E1,5.8050585E0,5.8526077E0,1.9925089E1,8.880521E0,2.8847366E1,1.5777989E1,1.0178777E3,9.4976874E2,1.10941345E2,4.7652707E2,7.963698E1,2.4881292E1,6.588919E1,4.178974E1,3.499988E4,1.1264974E4,9.699176E5,1.24448445E5,6.0292383E3,7.7442694E2,3.98954E2,5.655767E1,1.863625E5,1.5754078E5,5.6988395E4,7.08564E4,1.3089125E3,4.6054892E2,5.3212827E3,1.1877113E2,8.822877E0,3.648803E1,3.311469E4,1.171418E4,8.941287E2,2.4219402E2,1.5834849E3,3.786171E1,3.1044293E2,1.2775335E1,3.351532E1,2.0926248E2,2.9068384E2,1.4517471E2,6.623141E2,1.1799928E3,2.4350276E2,1.6731792E3,9.968735E0,3.3625847E1,1.5798165E1,1.4829923E1,5.9967194E0,1.392837E1,1.9874756E1,8.97261E0,7.8152113E0,7.9627786E0,5.828841E2,4.349936E2,7.920998E2,1.5766895E2,3.1429287E1,7.9512054E1,2.5004431E2,2.2648276E2,3.1794434E1,4.784254E1,1.792669E1,6.9546013E0,3.1705162E1,3.418403E1,1.7928032E1,2.3861712E1,2.3788383E4,1.1211496E4,7.4355576E3,3.829416E3,9.657416E5,4.1759863E3,2.1112532E3,1.22337195E5,5.7733125E3,2.5592615E2,3.086482E2,4.6577872E2,3.6925144E1,3.6202887E2,2.7699755E1,2.8857916E1,1.5972711E1,1.8634653E5,1.0109399E5,5.644678E4,5.6192285E4,7.9611017E2,2.2917007E1,7.083348E4,1.1744792E3,1.3443323E2,4.0997632E2,5.0572594E1,5.022288E3,2.9899463E2,2.429044E1,9.44807E1,2.8610641E1,7.87739E0,2.8377637E4,4.737053E3,3.692149E3,8.0220303E3,2.3234628E2,6.617824E2,5.4905502E1,1.8728851E2,1.383896E3,1.9958885E2,1.8712461E1,1.9149246E1,1.8773071E2,1.2271223E2,6.8319554E0,5.9433804E0,2.39311E1,9.584219E0,5.936354E1,1.4989894E2,1.5786607E2,1.3281775E2,1.7721653E1,1.27453064E2,6.1743427E2,4.487987E1,1.9114099E2,9.8885187E2,2.3658954E2,6.913218E0,1.3649564E3,3.0822284E2,2.1670494E1,1.1955352E1,8.968251E0,6.829914E0,7.953078E0,6.8768454E0,6.988745E0,6.9396253E0,6.928582E0,1.2946173E1],"tree_param":{"num_deleted":"0","num_feature":"16","num_nodes":"205","size_leaf_vector":"1"}},{"base_weights":[1.2874956E-5,-7.717331E-6,5.3212545E-3,7.671997E-5,-2.392903E-4,3.2966258E-3,1.3902627E-2,2.7372842E-5,1.0907957E-3,-1.3661987E-4,-2.227141E-3,4.868235E-3,-6.0902615E-3,2.4973422E-2,4.8426883E-3,3.8457816E-5,-2.6121952E-3,9.2085084E-4,7.253325E-3,-5.5656634E-5,-6.043928E-4,-8.427902E-4,-3.9575277E-3,6.4195828E-3,-4.9675656E-3,-8.952319E-3,2.2796966E-2,2.1954689E-3,3.688744E-2,3.622439E-3,9.454218E-4,-8.261177E-6,5.334728E-4,-4.391926E-3,6.7419303E-3,7.121488E-4,3.5298867E-3,3.841215E-4,3.147849E-2,-5.043275E-5,-7.306329E-3,-7.914392E-4,1.2878979E-3,-2.6379326E-2,-7.269591E-4,-3.726901E-3,-2.2736004E-2,1.372637E-3,6.222117E-3,2.9847857E-3,-9.553379E-3,1.7528702E-3,-1.5000299E-2,9.734774E-3,8.2210466E-2,7.848424E-3,-5.610751E-2,3.3413857E-2,1.8404631E-3,2.0386485E-2,-9.604426E-4,-8.391025E-5,2.4265367E-4,3.885301E-4,2.6156183E-3,-6.1228843E-3,-7.134071E-4,2.3362257E-2,4.104059E-3,1.003746E-3,-1.1009369E-3,4.9516317E-3,-1.0796318E-2,-6.0360655E-3,2.6583087E-3,4.4205848E-2,1.4543737E-2,-2.8837267E-3,-4.203416E-5,2.159851E-2,-1.1119117E-2,-5.441726E-4,-1.9503522E-3,3.3739512E-3,9.446132E-5,-1.7970383E-2,-9.820292E-4,1.1518904E-4,-3.5786005E-3,-3.3867904E-3,-1.5391491E-2,-1.6670862E-2,-5.1428355E-2,5.686541E-3,3.443534E-2,-4.0756785E-3,1.6129987E-2,8.152017E-3,-1.1754188E-2,-7.5432553E-4,1.5720116E-2,-1.2363125E-2,-4.6091057E-2,5.5618834E-4,2.4220815E-3,1.5405423E-3,3.9512344E-4,1.1401188E-2,-3.916683E-2,-6.3733525E-5,-1.7824422E-3,3.6284592E-2,-2.4035452E-2,-1.8408919E-2,4.0010575E-2,4.936841E-5,-1.0520527E-3,-8.3303996E-7,-9.48069E-6,1.5698129E-6,5.1995444E-6,6.657668E-6,-5.6799486E-6,8.809974E-6,7.068642E-5,-1.2754543E-4,-3.9223247E-5,-2.7484808E-5,6.0060058E-5,-1.9823576E-4,3.3475377E-4,2.9778332E-4,3.6820667E-5,-2.013393E-5,1.4420713E-5,-8.097227E-6,-2.0243194E-4,1.801957E-4,1.0180538E-5,-4.392455E-4,6.31476E-6,-4.0756044E-5,-2.1230285E-4,-7.392625E-6,9.131689E-5,1.260504E-4,7.489158E-4,-3.181726E-5,2.6401016E-4,-4.5796123E-6,-5.4151038E-5,-7.2225293E-7,1.3693476E-5,3.9823132E-4,-1.0053508E-4,-6.7291854E-5,-2.5134356E-4,-1.2969387E-5,2.1502403E-6,-2.002883E-5,-1.7957212E-4,1.7583556E-5,7.726235E-5,-2.9636865E-6,8.6609965E-5,-8.673979E-5,-5.204816E-4,1.4913308E-5,-4.2437423E-5,2.0860522E-5,-7.0047136E-5,-3.3163255E-5,-7.671028E-5,-8.859721E-5,-5.4982E-4,-1.6973703E-4,-4.1622628E-4,-8.0185157E-4,-2.601652E-4,2.6805783E-5,1.10194494E-4,-7.8491445E-5,8.37558E-4,-1.865109E-5,-7.170953E-4,-2.1006897E-4,3.1811846E-4,5.833762E-4,-8.471387E-5,-8.25123E-5,-2.8841384E-4,-4.2996893E-5,1.6860227E-4,3.8723505E-4,-4.9211412E-5,-1.8506311E-4,3.24155E-4,-7.8368775E-4,-7.3944134E-6,-5.7272187E-5,2.5946271E-4,-3.751647E-6,4.349899E-4,-8.068486E-4,-1.0374243E-4,6.0541334E-4,2.7382202E-4,4.972192E-4,-1.1977388E-3,4.6385892E-4,-5.292009E-4,-4.8907757E-5,7.042591E-4,-5.299127E-4,1.2434639E-5],"categories":[],"categories_nodes":[],"categories_segments":[],"categories_sizes":[],"default_left":[0,0,0,0,0,0,0,0,0,0,0,0,0,0,0,0,0,0,0,0,0,0,0,0,0,0,0,0,0,0,0,0,0,0,0,0,0,0,0,0,0,0,0,0,0,0,0,0,0,0,0,0,0,0,0,0,0,0,0,0,0,0,0,0,0,0,0,0,0,0,0,0,0,0,0,0,0,0,0,0,0,0,0,0,0,0,0,0,0,0,0,0,0,0,0,0,0,0,0,0,0,0,0,0,0,0,0,0,0,0,0,0,0,0,0,0,0,0,0,0,0,0,0,0,0,0,0,0,0,0,0,0,0,0,0,0,0,0,0,0,0,0,0,0,0,0,0,0,0,0,0,0,0,0,0,0,0,0,0,0,0,0,0,0,0,0,0,0,0,0,0,0,0,0,0,0,0,0,0,0,0,0,0,0,0,0,0,0,0,0,0,0,0,0,0,0,0,0,0,0,0,0,0,0,0,0,0,0,0,0,0,0,0,0,0],"id":3,"left_children":[1,3,5,7,9,11,13,15,17,19,21,23,25,27,29,31,33,35,37,39,41,43,45,47,49,51,53,55,57,59,-1,61,63,65,67,69,71,73,75,77,79,81,83,85,87,89,91,-1,93,95,97,99,101,103,105,107,109,111,-1,113,115,117,119,121,123,125,127,129,131,133,135,137,139,141,143,145,147,149,151,153,155,157,159,161,163,165,-1,167,169,171,173,175,177,179,181,183,185,187,189,191,193,195,197,-1,199,-1,-1,201,203,-1,-1,205,207,209,211,213,-1,-1,-1,-1,-1,-1,-1,-1,-1,-1,-1,-1,-1,-1,-1,-1,-1,-1,-1,-1,-1,-1,-1,-1,-1,-1,-1,-1,-1,-1,-1,-1,-1,-1,-1,-1,-1,-1,-1,-1,-1,-1,-1,-1,-1,-1,-1,-1,-1,-1,-1,-1,-1,-1,-1,-1,-1,-1,-1,-1,-1,-1,-1,-1,-1,-1,-1,-1,-1,-1,-1,-1,-1,-1,-1,-1,-1,-1,-1,-1,-1,-1,-1,-1,-1,-1,-1,-1,-1,-1,-1,-1,-1,-1,-1,-1,-1,-1,-1],"loss_changes":[1.840391E-1,3.2786857E-2,1.1287844E-1,6.147603E-2,9.142304E-2,7.767397E-2,1.2419711E-1,3.4261663E-2,5.963529E-2,1.6129844E-2,5.266121E-2,6.885409E-2,6.233634E-2,1.511012E-1,6.0201842E-2,2.6987754E-2,8.15126E-2,3.0174047E-2,2.5410712E-1,1.3696844E-2,2.2240203E-2,3.593528E-2,4.209256E-2,8.094858E-2,2.2455504E-2,4.459512E-2,5.164511E-2,6.31163E-2,1.4287764E-1,5.1836852E-2,0E0,2.0235552E-2,3.0346747E-2,2.6144885E-2,3.403646E-2,2.71604E-2,8.360775E-2,1.7374808E-2,7.203403E-2,8.612529E-3,2.8689606E-2,1.6369596E-2,1.4036518E-2,2.3898408E-2,2.9256485E-2,3.814456E-2,1.9713074E-2,0E0,5.8395386E-2,2.0927312E-2,1.5265204E-2,8.803799E-3,3.536982E-2,1.4394423E-2,2.4162434E-2,2.9267767E-2,7.66139E-2,5.9088886E-2,0E0,1.1065343E-1,4.645173E-2,8.697062E-3,5.197254E-3,1.293092E-2,3.967231E-2,3.5371378E-2,1.1580974E-2,1.818639E-2,1.45139815E-2,2.1833535E-2,4.7912825E-2,1.5205784E-1,1.0681994E-1,9.349106E-3,1.4080081E-2,1.13198906E-1,1.822403E-2,4.1987123E-3,7.4132094E-3,1.0433793E-2,1.2080057E-2,1.7868578E-2,3.8494706E-2,1.1772046E-2,8.642581E-3,1.24736205E-2,0E0,3.781767E-2,3.2358285E-2,1.7912537E-2,6.552327E-2,4.085837E-3,7.711567E-3,4.5022525E-2,1.0280664E-1,1.9835092E-2,2.6845187E-2,2.6402986E-2,2.0392265E-2,8.518492E-3,1.2521259E-2,4.5969494E-2,2.810096E-2,0E0,6.5673986E-3,0E0,0E0,4.7202326E-2,9.465095E-3,0E0,0E0,6.24218E-2,8.445431E-2,7.023354E-2,7.716808E-2,2.1959024E-2,0E0,0E0,0E0,0E0,0E0,0E0,0E0,0E0,0E0,0E0,0E0,0E0,0E0,0E0,0E0,0E0,0E0,0E0,0E0,0E0,0E0,0E0,0E0,0E0,0E0,0E0,0E0,0E0,0E0,0E0,0E0,0E0,0E0,0E0,0E0,0E0,0E0,0E0,0E0,0E0,0E0,0E0,0E0,0E0,0E0,0E0,0E0,0E0,0E0,0E0,0E0,0E0,0E0,0E0,0E0,0E0,0E0,0E0,0E0,0E0,0E0,0E0,0E0,0E0,0E0,0E0,0E0,0E0,0E0,0E0,0E0,0E0,0E0,0E0,0E0,0E0,0E0,0E0,0E0,0E0,0E0,0E0,0E0,0E0,0E0,0E0,0E0,0E0,0E0,0E0,0E0,0E0,0E0,0E0,0E0,0E0,0E0,0E0,0E0],"parents":[2147483647,0,0,1,1,2,2,3,3,4,4,5,5,6,6,7,7,8,8,9,9,10,10,11,11,12,12,13,13,14,14,15,15,16,16,17,17,18,18,19,19,20,20,21,21,22,22,23,23,24,24,25,25,26,26,27,27,28,28,29,29,31,31,32,32,33,33,34,34,35,35,36,36,37,37,38,38,39,39,40,40,41,41,42,42,43,43,44,44,45,45,46,46,48,48,49,49,50,50,51,51,52,52,53,53,54,54,55,55,56,56,57,57,59,59,60,60,61,61,62,62,63,63,64,64,65,65,66,66,67,67,68,68,69,69,70,70,71,71,72,72,73,73,74,74,75,75,76,76,77,77,78,78,79,79,80,80,81,81,82,82,83,83,84,84,85,85,87,87,88,88,89,89,90,90,91,91,92,92,93,93,94,94,95,95,96,96,97,97,98,98,99,99,100,100,101,101,102,102,104,104,107,107,108,108,111,111,112,112,113,113,114,114,115,115],"right_children":[2,4,6,8,10,12,14,16,18,20,22,24,26,28,30,32,34,36,38,40,42,44,46,48,50,52,54,56,58,60,-1,62,64,66,68,70,72,74,76,78,80,82,84,86,88,90,92,-1,94,96,98,100,102,104,106,108,110,112,-1,114,116,118,120,122,124,126,128,130,132,134,136,138,140,142,144,146,148,150,152,154,156,158,160,162,164,166,-1,168,170,172,174,176,178,180,182,184,186,188,190,192,194,196,198,-1,200,-1,-1,202,204,-1,-1,206,208,210,212,214,-1,-1,-1,-1,-1,-1,-1,-1,-1,-1,-1,-1,-1,-1,-1,-1,-1,-1,-1,-1,-1,-1,-1,-1,-1,-1,-1,-1,-1,-1,-1,-1,-1,-1,-1,-1,-1,-1,-1,-1,-1,-1,-1,-1,-1,-1,-1,-1,-1,-1,-1,-1,-1,-1,-1,-1,-1,-1,-1,-1,-1,-1,-1,-1,-1,-1,-1,-1,-1,-1,-1,-1,-1,-1,-1,-1,-1,-1,-1,-1,-1,-1,-1,-1,-1,-1,-1,-1,-1,-1,-1,-1,-1,-1,-1,-1,-1,-1,-1],"split_conditions":[1.0210142E0,7.33871E-1,1.2743987E0,4.8117375E-1,3.412E1,1.0189189E0,9.462915E-2,5.983E1,2.3297508E0,2.412E1,9.9559087E-1,1.4064658E0,2.43695E0,3.197E1,2.43695E0,3.7743616E-1,8.5808337E-1,5.983E1,3.908E1,7.804023E-1,2.2411888E0,8.630676E-2,2.872994E0,-2.2874608E0,3.7142858E-1,9.65657E-1,4.773E1,1.954153E0,2.3752804E0,-1.3224928E0,9.454218E-4,7.494457E-1,1.9231333E0,7.222328E-1,-1.8164287E0,4.228E1,1.7069447E0,2.4941022E0,4.920635E-1,4.77327E-3,1.363E1,1.375829E0,2.4941022E0,6.646E1,5.983E1,1.1586348E0,2.1026046E0,1.372637E-3,9.257057E-1,2.2334003E-1,1.42E1,8.5808337E-1,5.7728016E-1,1.597E1,4.7904193E-2,5.194274E-1,9.9527186E-1,2.1402128E0,1.8404631E-3,-1.694853E0,2.3752804E0,3.291E1,2.2992443E-1,9.257057E-1,3.291E1,6.646E1,4.4007042E-1,3.180412E-1,9.0697676E-2,-1.694853E0,1.9781917E0,1.764706E-1,1.4139344E-1,1.4964399E0,1.9589977E-1,6.777767E-1,5.740741E-1,-4.5356187E-1,4.9986118E-1,9.364754E-1,1.0175748E0,2.771E1,2.4944003E0,2.908E1,5.074203E-1,8.6634845E-1,-9.820292E-4,1.9231333E0,4.3983856E-1,7.804023E-1,1.9881446E0,3.6597183E-1,9.912088E-1,6.9748557E-1,1.1586348E0,8.0158395E-1,1.4986608E0,7.883721E-1,9.9527186E-1,9.13242E-1,2.697E1,9.912088E-1,9.8329353E-1,5.5618834E-4,1.1586348E0,1.5405423E-3,3.9512344E-4,9.65657E-1,2.1173825E0,-6.3733525E-5,-1.7824422E-3,9.5983934E-1,4.5714286E-1,-2.0839097E0,9.364754E-1,5.546219E-1,-1.0520527E-3,-8.3303996E-7,-9.48069E-6,1.5698129E-6,5.1995444E-6,6.657668E-6,-5.6799486E-6,8.809974E-6,7.068642E-5,-1.2754543E-4,-3.9223247E-5,-2.7484808E-5,6.0060058E-5,-1.9823576E-4,3.3475377E-4,2.9778332E-4,3.6820667E-5,-2.013393E-5,1.4420713E-5,-8.097227E-6,-2.0243194E-4,1.801957E-4,1.0180538E-5,-4.392455E-4,6.31476E-6,-4.0756044E-5,-2.1230285E-4,-7.392625E-6,9.131689E-5,1.260504E-4,7.489158E-4,-3.181726E-5,2.6401016E-4,-4.5796123E-6,-5.4151038E-5,-7.2225293E-7,1.3693476E-5,3.9823132E-4,-1.0053508E-4,-6.7291854E-5,-2.5134356E-4,-1.2969387E-5,2.1502403E-6,-2.002883E-5,-1.7957212E-4,1.7583556E-5,7.726235E-5,-2.9636865E-6,8.6609965E-5,-8.673979E-5,-5.204816E-4,1.4913308E-5,-4.2437423E-5,2.0860522E-5,-7.0047136E-5,-3.3163255E-5,-7.671028E-5,-8.859721E-5,-5.4982E-4,-1.6973703E-4,-4.1622628E-4,-8.0185157E-4,-2.601652E-4,2.6805783E-5,1.10194494E-4,-7.8491445E-5,8.37558E-4,-1.865109E-5,-7.170953E-4,-2.1006897E-4,3.1811846E-4,5.833762E-4,-8.471387E-5,-8.25123E-5,-2.8841384E-4,-4.2996893E-5,1.6860227E-4,3.8723505E-4,-4.9211412E-5,-1.8506311E-4,3.24155E-4,-7.8368775E-4,-7.3944134E-6,-5.7272187E-5,2.5946271E-4,-3.751647E-6,4.349899E-4,-8.068486E-4,-1.0374243E-4,6.0541334E-4,2.7382202E-4,4.972192E-4,-1.1977388E-3,4.6385892E-4,-5.292009E-4,-4.8907757E-5,7.042591E-4,-5.299127E-4,1.2434639E-5],"split_indices":[5,8,3,5,6,7,12,6,7,6,0,0,7,6,7,2,2,6,6,2,7,2,7,7,11,2,6,7,7,7,0,11,7,2,0,6,7,7,8,11,6,7,7,6,6,2,0,0,7,11,6,2,0,6,12,8,11,7,0,7,7,6,2,7,6,6,5,5,12,7,3,12,12,3,12,2,8,7,2,11,3,6,0,6,5,12,0,7,7,2,0,2,8,3,2,3,0,8,12,8,6,12,8,0,2,0,0,2,3,0,0,11,8,7,12,11,0,0,0,0,0,0,0,0,0,0,0,0,0,0,0,0,0,0,0,0,0,0,0,0,0,0,0,0,0,0,0,0,0,0,0,0,0,0,0,0,0,0,0,0,0,0,0,0,0,0,0,0,0,0,0,0,0,0,0,0,0,0,0,0,0,0,0,0,0,0,0,0,0,0,0,0,0,0,0,0,0,0,0,0,0,0,0,0,0,0,0,0,0,0,0,0,0,0,0],"split_type":[0,0,0,0,0,0,0,0,0,0,0,0,0,0,0,0,0,0,0,0,0,0,0,0,0,0,0,0,0,0,0,0,0,0,0,0,0,0,0,0,0,0,0,0,0,0,0,0,0,0,0,0,0,0,0,0,0,0,0,0,0,0,0,0,0,0,0,0,0,0,0,0,0,0,0,0,0,0,0,0,0,0,0,0,0,0,0,0,0,0,0,0,0,0,0,0,0,0,0,0,0,0,0,0,0,0,0,0,0,0,0,0,0,0,0,0,0,0,0,0,0,0,0,0,0,0,0,0,0,0,0,0,0,0,0,0,0,0,0,0,0,0,0,0,0,0,0,0,0,0,0,0,0,0,0,0,0,0,0,0,0,0,0,0,0,0,0,0,0,0,0,0,0,0,0,0,0,0,0,0,0,0,0,0,0,0,0,0,0,0,0,0,0,0,0,0,0,0,0,0,0,0,0,0,0,0,0,0,0,0,0,0,0,0,0],"sum_hessian":[1.6832231E6,1.6767176E6,6.505523E3,1.2286765E6,4.4804103E5,5.2647944E3,1.2407285E3,1.1716689E6,5.7007605E4,4.260409E5,2.2000127E4,4.5106245E3,7.541699E2,5.577277E2,6.830008E2,1.1667724E6,4.896504E3,5.5479348E4,1.5282585E3,3.6319584E5,6.284507E4,1.2225012E4,9.775115E3,3.896925E3,6.1369946E2,6.866512E2,6.751875E1,1.9190689E2,3.6582083E2,6.722433E2,1.0757535E1,1.0661356E6,1.0063681E5,4.114683E3,7.818206E2,5.137342E4,4.1059272E3,1.1911704E3,3.370882E2,3.629358E5,2.600269E2,5.7195934E4,5.649137E3,5.4541058E1,1.2170471E4,9.657344E3,1.1777177E2,6.7646623E0,3.8901604E3,2.2385527E2,3.898442E2,2.4748628E2,4.391649E2,5.5782135E1,1.173662E1,1.7533624E2,1.6570663E1,3.555712E2,1.0249632E1,1.444527E2,5.277906E2,8.1918856E5,2.4694708E5,9.409121E4,6.5456006E3,2.7963894E3,1.3182936E3,1.0630651E2,6.755141E2,4.425978E4,7.1136406E3,3.735954E3,3.6997333E2,3.104959E2,8.806745E2,1.9186896E2,1.4521924E2,1.0694576E3,3.6186638E5,2.987207E1,2.301548E2,4.7144617E4,1.0051317E4,2.0530757E3,3.5960618E3,4.7776127E1,6.7649307E0,9.393773E3,2.7766973E3,9.384834E3,2.7250974E2,9.789224E1,1.9879522E1,3.8183667E3,7.179376E1,1.4538261E2,7.8472664E1,4.259277E1,3.4725143E2,2.0959874E2,3.7887547E1,4.0549976E2,3.3665115E1,8.906853E0,4.6875282E1,5.807417E0,5.929203E0,1.6341446E2,1.192177E1,1.0908932E1,5.661731E0,3.3890125E2,1.6669954E1,4.8392174E1,9.6060524E1,5.2188763E2,5.9029026E0,8.0170444E5,1.7484084E4,1.5354344E5,9.340363E4,7.926405E4,1.4827163E4,4.1234517E3,2.4221487E3,1.1079473E3,1.6884423E3,1.035994E3,2.8229956E2,9.974217E0,9.633229E1,3.2795616E1,6.427185E2,2.8743875E3,4.1385395E4,6.922097E3,1.9154344E2,1.0951709E3,2.6407832E3,1.13969086E2,2.5600424E2,2.5267992E2,5.7815975E1,5.262365E2,3.54438E2,6.587692E1,1.2599203E2,4.2738533E1,1.02480705E2,4.1582562E2,6.53632E2,3.565411E5,5.325272E3,2.1884064E1,7.988007E0,1.4652919E2,8.3625626E1,2.7291135E4,1.985348E4,9.823824E3,2.2749323E2,1.2521351E3,8.009405E2,3.4302947E3,1.6576694E2,3.385056E1,1.3925568E1,7.1817705E3,2.2120034E3,8.1272473E2,1.9639725E3,7.6819644E3,1.7028691E3,2.151001E2,5.7409653E1,8.59224E1,1.1969847E1,1.2890637E1,6.988886E0,1.8890756E3,1.929291E3,3.2926422E1,3.886734E1,1.3944597E2,5.9366336E0,1.7954948E1,6.051772E1,1.165077E1,3.0942001E1,2.468242E2,1.00427216E2,1.7674977E2,3.2848965E1,2.0935768E1,1.6951778E1,3.7792242E2,2.7577349E1,2.3695393E1,9.969723E0,3.392401E1,1.295127E1,1.105118E2,5.2902664E1,5.9479055E0,5.9738646E0,1.6919125E2,1.6970999E2,8.935595E0,7.734361E0,1.4755229E1,3.3636944E1,2.787405E1,6.818647E1,1.0887275E1,5.110004E2],"tree_param":{"num_deleted":"0","num_feature":"16","num_nodes":"215","size_leaf_vector":"1"}},{"base_weights":[-5.598322E-6,-2.5897316E-5,5.189506E-3,-1.0419574E-4,2.3983725E-4,2.5977236E-3,1.5997186E-2,-2.9468276E-5,-3.0449338E-4,8.059383E-5,5.2448106E-4,3.8990683E-3,-8.469124E-3,4.524719E-2,1.3462047E-2,-5.656342E-5,1.1525588E-3,-2.628369E-4,-1.4008073E-3,-2.5027748E-6,4.1624514E-4,7.0312386E-4,-1.8866426E-4,8.747902E-4,3.7370773E-3,-9.606193E-3,4.1411966E-2,7.4529715E-2,2.554166E-2,2.455714E-2,9.1334935E-3,-1.12036265E-4,1.5126803E-4,8.8554464E-4,1.1273176E-2,-1.9742263E-4,-6.922696E-4,-3.5315019E-3,-6.4313484E-5,1.6844617E-5,-2.0433173E-3,4.5752493E-4,-2.293509E-3,4.2357322E-4,1.6393294E-3,-9.6946715E-5,-5.4106754E-3,4.115432E-4,6.6371174E-3,-2.0409346E-2,-5.8519496E-3,3.2695863E-4,6.356925E-4,1.6899914E-2,1.1608837E-1,3.4702998E-2,-3.9819698E-4,1.3962966E-2,8.7273516E-2,-3.87206E-2,1.0724148E-2,-2.1315976E-4,-6.996835E-5,6.4043095E-4,9.3776085E-5,1.0882869E-3,-4.467702E-3,4.5097176E-2,3.6590442E-3,-2.3886818E-4,6.036241E-4,-2.1235417E-3,-5.0438504E-4,-6.787684E-3,-2.2348405E-3,1.0030475E-2,-2.1303863E-4,-3.723122E-5,2.7313622E-4,1.8298335E-4,-5.9436434E-3,2.4641675E-4,9.4188534E-4,-1.0544774E-2,-1.0793075E-3,3.2499077E-4,1.0586311E-3,2.7220622E-3,1.0320189E-3,-3.963121E-4,9.842404E-4,-1.7350402E-2,-1.6747575E-3,8.8983885E-4,-4.4175114E-2,-1.4104353E-2,7.505404E-3,1.1202446E-2,-3.7546683E-2,-1.2259697E-2,5.525846E-3,-2.267996E-4,4.4900694E-4,5.622596E-2,1.7543192E-1,4.6420153E-2,1.3097514E-3,-7.920944E-3,2.8005328E-2,4.6057496E-2,3.1203665E-3,-1.4656217E-2,-1.2668201E-3,1.2267528E-3,9.80282E-3,-2.6364423E-6,4.7617857E-5,-1.3174695E-6,2.0435125E-6,6.9235334E-6,5.2485677E-5,1.4857769E-6,-1.1936035E-5,6.232218E-6,5.8066442E-5,-8.552769E-5,1.4427265E-4,4.8223764E-4,9.558671E-4,2.7077695E-4,-0E0,-1.7955313E-6,-7.4257146E-6,2.2235314E-5,1.6084347E-6,-2.0354224E-5,-1.0933965E-4,-4.8131997E-6,-4.2449556E-5,-7.5770906E-5,-2.6485953E-4,-6.7973265E-6,-6.2222316E-5,6.520828E-4,7.363442E-5,-5.2138735E-6,4.550617E-5,-2.9551472E-7,-2.2972597E-5,1.3198013E-6,1.19904535E-5,1.8280267E-5,-1.0875634E-4,-6.530336E-5,-5.037975E-4,-9.7248725E-5,3.335926E-6,1.7142756E-5,1.2883091E-6,-3.7328566E-5,-1.7887712E-4,9.24846E-5,-2.137339E-5,4.47254E-6,-1.1275053E-5,1.8727525E-5,2.549746E-6,3.142412E-5,1.15305826E-4,-2.9926758E-5,1.4846088E-5,-3.469766E-6,-6.12541E-5,8.345395E-6,7.1658214E-5,-1.5971699E-4,-8.322401E-4,4.2958168E-4,-5.9871243E-5,7.508477E-4,6.371194E-6,-1.717591E-4,-6.832155E-4,2.6197638E-4,-2.8608865E-4,2.113871E-4,6.2695435E-5,3.686294E-4,-5.1734845E-5,-3.1936975E-4,-9.546904E-4,-2.7708276E-4,-7.252337E-5,3.431074E-5,5.9609406E-4,2.6549105E-5,1.3061184E-3,1.5450517E-3,2.5960677E-3,5.5564793E-5,7.576428E-4,-3.9595793E-4,4.3938303E-4,6.599241E-5,-4.7764077E-4,-1.6550464E-4,4.6292224E-4,1.6407515E-3,3.1504864E-4,-9.296339E-4,3.2392156E-4,6.073094E-5,2.848616E-4],"categories":[],"categories_nodes":[],"categories_segments":[],"categories_sizes":[],"default_left":[0,0,0,0,0,0,0,0,0,0,0,0,0,0,0,0,0,0,0,0,0,0,0,0,0,0,0,0,0,0,0,0,0,0,0,0,0,0,0,0,0,0,0,0,0,0,0,0,0,0,0,0,0,0,0,0,0,0,0,0,0,0,0,0,0,0,0,0,0,0,0,0,0,0,0,0,0,0,0,0,0,0,0,0,0,0,0,0,0,0,0,0,0,0,0,0,0,0,0,0,0,0,0,0,0,0,0,0,0,0,0,0,0,0,0,0,0,0,0,0,0,0,0,0,0,0,0,0,0,0,0,0,0,0,0,0,0,0,0,0,0,0,0,0,0,0,0,0,0,0,0,0,0,0,0,0,0,0,0,0,0,0,0,0,0,0,0,0,0,0,0,0,0,0,0,0,0,0,0,0,0,0,0,0,0,0,0,0,0,0,0,0,0,0,0,0,0,0,0,0,0,0,0,0,0,0,0,0,0,0,0,0,0],"id":4,"left_children":[1,3,5,7,9,11,13,15,17,19,21,23,25,27,29,31,33,35,37,39,41,43,45,-1,47,49,51,53,55,57,59,61,63,65,67,69,71,73,75,77,79,81,83,85,87,89,91,93,95,97,99,-1,-1,101,103,105,-1,107,109,111,113,115,117,119,121,123,125,127,129,131,133,135,137,139,141,143,145,147,149,151,153,155,157,159,161,163,165,167,169,171,173,175,177,179,181,183,185,187,189,191,193,-1,-1,195,197,199,201,203,205,207,-1,209,-1,-1,211,-1,-1,-1,-1,-1,-1,-1,-1,-1,-1,-1,-1,-1,-1,-1,-1,-1,-1,-1,-1,-1,-1,-1,-1,-1,-1,-1,-1,-1,-1,-1,-1,-1,-1,-1,-1,-1,-1,-1,-1,-1,-1,-1,-1,-1,-1,-1,-1,-1,-1,-1,-1,-1,-1,-1,-1,-1,-1,-1,-1,-1,-1,-1,-1,-1,-1,-1,-1,-1,-1,-1,-1,-1,-1,-1,-1,-1,-1,-1,-1,-1,-1,-1,-1,-1,-1,-1,-1,-1,-1,-1,-1,-1,-1,-1,-1,-1,-1],"loss_changes":[1.7735931E-1,3.4864377E-2,1.8319412E-1,1.9370716E-2,1.7280657E-2,7.602682E-2,9.315741E-2,3.0182762E-2,1.6046148E-2,6.8244594E-3,1.7430905E-2,5.1526114E-2,3.1358514E-2,5.6560397E-2,5.5614352E-2,1.0624466E-2,5.6966E-2,9.5098E-3,3.6607616E-2,7.7557676E-3,5.416137E-3,2.8613973E-2,1.3074873E-2,0E0,4.541736E-2,2.1775272E-2,8.3355047E-4,9.430176E-2,3.2895893E-2,2.1557355E-1,6.3799605E-2,3.092288E-3,5.4533933E-3,2.2306204E-2,1.3914283E-1,9.75867E-3,1.20173E-2,2.085074E-2,1.1795217E-2,2.6928834E-3,1.6065218E-2,4.8804497E-3,7.1714716E-3,5.263121E-3,1.6504683E-2,8.709129E-3,2.0857632E-2,4.6539634E-2,4.5320548E-2,7.586248E-2,2.9538393E-2,0E0,0E0,1.2754878E-2,7.708225E-2,2.0255536E-2,0E0,8.617675E-2,3.2272515E-1,4.1081563E-2,6.647242E-2,3.693656E-3,4.735258E-3,5.194435E-3,5.3716693E-3,4.2088892E-2,3.1675328E-2,1.5866935E-2,3.0379917E-2,9.474892E-3,8.355772E-3,1.5836688E-2,1.27185155E-2,1.1194147E-2,1.7150668E-2,1.9152645E-2,6.6755274E-3,3.8143438E-3,3.971299E-3,1.4160651E-2,1.2920026E-2,7.820157E-3,5.702989E-3,2.7334355E-3,3.7241345E-3,4.000267E-3,4.6433974E-3,7.933125E-3,1.0820232E-2,1.0776168E-2,8.450197E-3,2.2995017E-2,4.3345824E-2,4.786951E-2,7.608231E-3,3.4348354E-2,5.581796E-2,1.4827043E-2,4.029216E-2,1.6942795E-2,1.6632758E-2,0E0,0E0,3.2653045E-2,9.231806E-3,2.5477909E-2,1.731207E-2,4.6311546E-2,7.260063E-2,6.606233E-2,0E0,5.283189E-2,0E0,0E0,5.2554302E-2,0E0,0E0,0E0,0E0,0E0,0E0,0E0,0E0,0E0,0E0,0E0,0E0,0E0,0E0,0E0,0E0,0E0,0E0,0E0,0E0,0E0,0E0,0E0,0E0,0E0,0E0,0E0,0E0,0E0,0E0,0E0,0E0,0E0,0E0,0E0,0E0,0E0,0E0,0E0,0E0,0E0,0E0,0E0,0E0,0E0,0E0,0E0,0E0,0E0,0E0,0E0,0E0,0E0,0E0,0E0,0E0,0E0,0E0,0E0,0E0,0E0,0E0,0E0,0E0,0E0,0E0,0E0,0E0,0E0,0E0,0E0,0E0,0E0,0E0,0E0,0E0,0E0,0E0,0E0,0E0,0E0,0E0,0E0,0E0,0E0,0E0,0E0,0E0,0E0,0E0,0E0,0E0,0E0,0E0,0E0,0E0,0E0,0E0],"parents":[2147483647,0,0,1,1,2,2,3,3,4,4,5,5,6,6,7,7,8,8,9,9,10,10,11,11,12,12,13,13,14,14,15,15,16,16,17,17,18,18,19,19,20,20,21,21,22,22,24,24,25,25,26,26,27,27,28,28,29,29,30,30,31,31,32,32,33,33,34,34,35,35,36,36,37,37,38,38,39,39,40,40,41,41,42,42,43,43,44,44,45,45,46,46,47,47,48,48,49,49,50,50,53,53,54,54,55,55,57,57,58,58,59,59,60,60,61,61,62,62,63,63,64,64,65,65,66,66,67,67,68,68,69,69,70,70,71,71,72,72,73,73,74,74,75,75,76,76,77,77,78,78,79,79,80,80,81,81,82,82,83,83,84,84,85,85,86,86,87,87,88,88,89,89,90,90,91,91,92,92,93,93,94,94,95,95,96,96,97,97,98,98,99,99,100,100,103,103,104,104,105,105,106,106,107,107,108,108,109,109,111,111,114,114],"right_children":[2,4,6,8,10,12,14,16,18,20,22,24,26,28,30,32,34,36,38,40,42,44,46,-1,48,50,52,54,56,58,60,62,64,66,68,70,72,74,76,78,80,82,84,86,88,90,92,94,96,98,100,-1,-1,102,104,106,-1,108,110,112,114,116,118,120,122,124,126,128,130,132,134,136,138,140,142,144,146,148,150,152,154,156,158,160,162,164,166,168,170,172,174,176,178,180,182,184,186,188,190,192,194,-1,-1,196,198,200,202,204,206,208,-1,210,-1,-1,212,-1,-1,-1,-1,-1,-1,-1,-1,-1,-1,-1,-1,-1,-1,-1,-1,-1,-1,-1,-1,-1,-1,-1,-1,-1,-1,-1,-1,-1,-1,-1,-1,-1,-1,-1,-1,-1,-1,-1,-1,-1,-1,-1,-1,-1,-1,-1,-1,-1,-1,-1,-1,-1,-1,-1,-1,-1,-1,-1,-1,-1,-1,-1,-1,-1,-1,-1,-1,-1,-1,-1,-1,-1,-1,-1,-1,-1,-1,-1,-1,-1,-1,-1,-1,-1,-1,-1,-1,-1,-1,-1,-1,-1,-1,-1,-1,-1,-1],"split_conditions":[1.0210142E0,7.728395E-1,1.2743987E0,7.299578E-1,1.0445759E0,8.857716E-1,1.3240712E0,5.6089306E-1,4.9367672E-1,8.625277E-1,8.586066E-1,-2.2874608E0,2.872994E0,-5.94303E-1,1.9221412E-1,7.649667E-1,2.3297508E0,1.4564679E0,9.2488265E-1,5.845891E-1,9.7167754E-1,2.9082116E-1,7.4864346E-1,8.747902E-4,6.9748557E-1,1.0643016E-1,5.0102884E-1,9.8329353E-1,9.638009E-1,1.4529915E-1,2.271605E-1,2.6612905E-1,-1.3704171E0,9.795082E-1,9.2488265E-1,1.182827E0,1.5782017E0,-1.1882538E0,-1.9507122E0,5.778689E-1,5.740741E-1,9.638009E-1,2.832244E-2,9.5604396E-1,-6.5119505E-1,9.520958E-1,9.443299E-1,6.442786E-1,-1.7709773E0,3.3346313E-1,9.830452E-2,3.2695863E-4,6.356925E-4,8.819742E-1,7.299578E-1,1.2318867E0,-3.9819698E-4,-4.8226738E-1,2.32405E0,9.795082E-1,2.3880596E-1,4.4007042E-1,1.375829E0,4.9367672E-1,3.0179873E0,1.2118955E0,6.987952E-1,1.9781917E0,1.6470589E-1,5.0119334E-1,1.2595986E0,3.830789E-1,2.1173825E0,-1.1967264E0,4.594358E-1,5.01E-1,2.3752804E0,9.795082E-1,2.6028073E-1,6.523761E-1,9.9527186E-1,8.791209E-3,5.974026E-1,3.5394847E-1,5.606992E-1,2.775405E-1,3.3346313E-1,-6.7137307E-1,-5.653128E-1,5.845891E-1,5.845891E-1,1.885038E0,9.5983934E-1,1.6706444E-2,-1.1826826E0,-1.9507122E0,-1.2559508E0,9.873684E-1,9.7167754E-1,6.597938E-1,8.625277E-1,-2.267996E-4,4.4900694E-4,5.010309E-1,3.6344537E-1,-2.0234293E-1,1.7069447E0,6.352459E-2,1.9589977E-1,1.4042861E0,3.1203665E-3,8.8977957E-1,-1.2668201E-3,1.2267528E-3,9.13242E-1,-2.6364423E-6,4.7617857E-5,-1.3174695E-6,2.0435125E-6,6.9235334E-6,5.2485677E-5,1.4857769E-6,-1.1936035E-5,6.232218E-6,5.8066442E-5,-8.552769E-5,1.4427265E-4,4.8223764E-4,9.558671E-4,2.7077695E-4,-0E0,-1.7955313E-6,-7.4257146E-6,2.2235314E-5,1.6084347E-6,-2.0354224E-5,-1.0933965E-4,-4.8131997E-6,-4.2449556E-5,-7.5770906E-5,-2.6485953E-4,-6.7973265E-6,-6.2222316E-5,6.520828E-4,7.363442E-5,-5.2138735E-6,4.550617E-5,-2.9551472E-7,-2.2972597E-5,1.3198013E-6,1.19904535E-5,1.8280267E-5,-1.0875634E-4,-6.530336E-5,-5.037975E-4,-9.7248725E-5,3.335926E-6,1.7142756E-5,1.2883091E-6,-3.7328566E-5,-1.7887712E-4,9.24846E-5,-2.137339E-5,4.47254E-6,-1.1275053E-5,1.8727525E-5,2.549746E-6,3.142412E-5,1.15305826E-4,-2.9926758E-5,1.4846088E-5,-3.469766E-6,-6.12541E-5,8.345395E-6,7.1658214E-5,-1.5971699E-4,-8.322401E-4,4.2958168E-4,-5.9871243E-5,7.508477E-4,6.371194E-6,-1.717591E-4,-6.832155E-4,2.6197638E-4,-2.8608865E-4,2.113871E-4,6.2695435E-5,3.686294E-4,-5.1734845E-5,-3.1936975E-4,-9.546904E-4,-2.7708276E-4,-7.252337E-5,3.431074E-5,5.9609406E-4,2.6549105E-5,1.3061184E-3,1.5450517E-3,2.5960677E-3,5.5564793E-5,7.576428E-4,-3.9595793E-4,4.3938303E-4,6.599241E-5,-4.7764077E-4,-1.6550464E-4,4.6292224E-4,1.6407515E-3,3.1504864E-4,-9.296339E-4,3.2392156E-4,6.073094E-5,2.848616E-4],"split_indices":[5,9,3,8,3,8,3,5,5,13,8,7,7,7,8,11,7,7,13,5,8,5,5,0,3,11,14,13,8,8,8,13,7,11,13,7,7,7,7,11,8,9,11,11,7,9,13,11,7,7,7,0,0,11,9,7,0,7,3,11,8,5,7,5,3,3,9,3,8,14,7,5,3,7,7,14,7,8,5,7,9,8,8,5,3,5,7,7,7,5,5,7,13,8,7,7,7,13,8,9,11,0,0,14,8,7,7,8,9,3,0,11,0,0,9,0,0,0,0,0,0,0,0,0,0,0,0,0,0,0,0,0,0,0,0,0,0,0,0,0,0,0,0,0,0,0,0,0,0,0,0,0,0,0,0,0,0,0,0,0,0,0,0,0,0,0,0,0,0,0,0,0,0,0,0,0,0,0,0,0,0,0,0,0,0,0,0,0,0,0,0,0,0,0,0,0,0,0,0,0,0,0,0,0,0,0,0,0,0,0,0,0,0],"split_type":[0,0,0,0,0,0,0,0,0,0,0,0,0,0,0,0,0,0,0,0,0,0,0,0,0,0,0,0,0,0,0,0,0,0,0,0,0,0,0,0,0,0,0,0,0,0,0,0,0,0,0,0,0,0,0,0,0,0,0,0,0,0,0,0,0,0,0,0,0,0,0,0,0,0,0,0,0,0,0,0,0,0,0,0,0,0,0,0,0,0,0,0,0,0,0,0,0,0,0,0,0,0,0,0,0,0,0,0,0,0,0,0,0,0,0,0,0,0,0,0,0,0,0,0,0,0,0,0,0,0,0,0,0,0,0,0,0,0,0,0,0,0,0,0,0,0,0,0,0,0,0,0,0,0,0,0,0,0,0,0,0,0,0,0,0,0,0,0,0,0,0,0,0,0,0,0,0,0,0,0,0,0,0,0,0,0,0,0,0,0,0,0,0,0,0,0,0,0,0,0,0,0,0,0,0,0,0,0,0,0,0,0,0],"sum_hessian":[1.6822384E6,1.6756928E6,6.5455913E3,1.2943458E6,3.8134697E5,5.280456E3,1.2651353E3,9.4268706E5,3.5165875E5,2.4455827E5,1.3678869E5,4.7257124E3,5.5474335E2,1.0019916E2,1.1649362E3,9.2156944E5,2.111759E4,3.387935E5,1.28652705E4,1.9600886E5,4.8549414E4,1.09396305E5,2.7392375E4,1.0722003E1,4.7149907E3,5.428035E2,1.1939841E1,3.976402E1,6.0435135E1,3.25966E2,8.389701E2,7.274445E5,1.9412494E5,2.0575898E4,5.416912E2,2.940249E5,4.476859E4,4.956611E3,7.9086597E3,1.9416448E5,1.8443673E3,4.7824145E4,7.25269E2,8.42488E4,2.514751E4,2.6921432E4,4.7094272E2,2.1978513E3,2.5171392E3,1.3904353E2,4.0375998E2,5.978878E0,5.9609637E0,1.6940224E1,2.2823795E1,5.247454E1,7.9605956E0,2.7932208E2,4.6643898E1,2.6573803E1,8.123963E2,2.1365736E5,5.1378716E5,2.0401008E4,1.7372394E5,1.9826787E4,7.491121E2,9.903472E1,4.4265652E2,2.795705E5,1.4454396E4,5.1894683E3,3.957912E4,1.4094681E3,3.5471428E3,1.1370956E2,7.79495E3,1.6030898E5,3.385551E4,1.1730382E3,6.7132904E2,3.3319234E4,1.4504909E4,9.18472E1,6.3342175E2,7.293942E4,1.1309378E4,9.031437E3,1.6116073E4,2.1089709E4,5.8317236E3,1.1142887E2,3.5951385E2,2.17503E3,2.2821325E1,1.0055835E2,2.4165808E3,4.8753967E1,9.028957E1,2.5873355E2,1.4502641E2,5.979973E0,1.0960251E1,1.1755695E1,1.1068099E1,3.856779E1,1.3906748E1,1.09008865E2,1.7031323E2,3.7923504E1,8.720394E0,1.984274E1,6.7310643E0,7.7372937E0,8.04659E2,2.1344253E5,2.1483322E2,4.421465E5,7.164066E4,2.0025574E4,3.754325E2,1.6922228E5,4.50165E3,1.7163953E4,2.6628337E3,6.4754285E2,1.01569275E2,8.63375E1,1.2697219E1,7.251803E1,3.7013852E2,2.2488481E5,5.468568E4,3.998244E3,1.0456153E4,4.875942E3,3.1352682E2,3.8210375E4,1.3687449E3,1.361581E3,4.788711E1,2.2494392E3,1.2977034E3,8.919647E0,1.0478991E2,7.392986E3,4.0196436E2,1.5921047E5,1.0985144E3,2.7541664E4,6.313848E3,1.0257538E3,1.4728444E2,6.615446E2,9.784431E0,1.1370427E2,3.320553E4,9.26654E3,5.238369E3,3.3985252E1,5.7861946E1,4.4966022E1,5.8845575E2,7.0487414E4,2.4520059E3,7.1872964E3,4.122082E3,8.861733E3,1.6970282E2,8.358931E2,1.528018E4,2.060378E4,4.85929E2,5.5027554E3,3.2896832E2,1.0356108E2,7.867787E0,2.8587984E1,3.3092587E2,1.2448947E1,2.162581E3,6.979965E0,1.584136E1,2.083408E1,7.9724266E1,4.5945398E2,1.957127E3,2.1848333E1,2.6905632E1,7.154527E1,1.8744299E1,9.553446E1,1.631991E2,1.3709366E2,7.932745E0,5.9819374E0,5.773758E0,5.668045E0,5.400054E0,1.0951059E1,2.7616734E1,6.9436264E0,6.9631214E0,7.652571E1,3.2483154E1,3.322364E1,1.3708958E2,6.5397973E0,3.1383705E1,7.9051695E0,1.1937569E1,5.9661505E2,2.0804398E2],"tree_param":{"num_deleted":"0","num_feature":"16","num_nodes":"213","size_leaf_vector":"1"}},{"base_weights":[6.267282E-6,-1.1545803E-5,4.5777736E-3,-1.1600894E-4,2.1745377E-4,3.4241353E-3,1.8191407E-2,-4.2258587E-5,-3.13546E-4,5.124721E-4,4.3286764E-5,4.9204286E-3,-7.142219E-3,3.1863768E-2,8.393573E-3,1.5015316E-3,-6.0694118E-5,-1.9973803E-4,-8.0908916E-4,2.55945E-4,1.1976394E-3,-2.696401E-3,6.615658E-5,2.922908E-3,1.0239337E-2,-8.769401E-3,3.0157696E-2,5.828997E-2,1.249996E-2,1.6708119E-2,-3.0783344E-2,9.0555503E-4,1.0812395E-2,-1.06413034E-4,1.8800946E-4,-1.6631091E-4,-1.2416885E-3,-2.6002452E-3,-5.585412E-4,1.8472444E-4,9.698681E-4,9.924789E-4,3.0940592E-3,-1.4845317E-3,-8.6807525E-3,-2.0133532E-5,4.9272034E-4,9.0532465E-4,2.7310015E-3,8.926363E-3,7.172275E-2,1.6701633E-2,-1.0815023E-2,7.65235E-4,1.1214172E-2,4.2235326E-2,1.6740592E-1,-1.5838029E-2,2.5697915E-2,2.7099364E-2,3.5935175E-3,-1.5110183E-3,-1.1706123E-2,1.1187857E-3,-1.4223641E-2,2.8826214E-2,3.8023463E-3,-1.05724015E-4,-1.1606354E-2,1.5098475E-4,3.1460563E-3,-1.7986888E-4,2.9904344E-3,-1.1012147E-3,-7.933668E-3,-2.4004946E-3,-1.9715425E-2,-7.644365E-3,-5.150109E-4,1.4228412E-4,1.486117E-3,1.3783964E-3,-3.0308496E-4,7.2867796E-4,2.0152342E-3,3.6510748E-3,-2.8604495E-3,5.6864747E-6,-3.5680125E-3,-6.7882304E-4,-7.5959563E-3,3.0692775E-6,-2.995848E-3,1.9936468E-5,1.0037693E-3,4.0155714E-3,-6.77436E-3,-1.2521126E-3,1.1588664E-2,1.2851717E-3,4.721188E-2,5.913496E-3,7.4123585E-4,-2.731074E-2,-8.125626E-3,-0E0,4.5248697E-4,5.3149693E-2,-4.937514E-4,3.418091E-3,7.063829E-4,1.0634376E-3,-4.6143074E-2,1.871685E-2,1.0910842E-3,-9.224297E-4,3.497889E-2,-3.5225851E-3,1.67357E-2,-3.3995718E-2,4.642197E-2,2.8181597E-5,-9.433686E-6,-3.301849E-4,1.52688E-4,1.3790486E-4,5.6789117E-4,-4.2401673E-5,9.4085764E-5,-1.4780283E-6,3.3327237E-6,-4.1061714E-5,-4.7283468E-4,2.0084615E-6,-4.6772177E-5,7.149678E-5,9.48778E-6,-5.8388866E-7,-4.8593743E-6,1.972468E-5,1.250713E-4,-8.8572015E-6,-3.8123188E-5,-3.8148166E-4,-6.974258E-5,-3.4108456E-5,9.912384E-5,-3.1345364E-4,-4.2159023E-5,2.8520726E-6,-2.69797E-4,-1.0465641E-5,2.2226734E-6,2.8521137E-7,4.600457E-6,-1.6408779E-4,1.8780904E-5,1.2176587E-4,1.6031223E-5,3.0689298E-5,-9.235978E-6,1.2029874E-5,1.6811795E-6,4.2924043E-5,6.851764E-6,1.7121108E-4,3.96593E-5,5.92937E-6,-2.6001353E-4,8.5255924E-5,-8.834629E-6,-4.522154E-4,-3.9574454E-5,-6.129755E-5,-2.0110278E-4,1.8332818E-7,-2.1581565E-5,-9.685735E-6,-8.673441E-5,-6.821201E-7,3.79999E-5,1.5009004E-5,-7.4779723E-6,5.1371895E-5,-5.7679776E-4,-1.9927231E-4,6.334668E-5,6.370924E-5,-1.863512E-4,2.5412903E-4,9.230801E-5,1.635467E-4,7.609312E-4,-9.388016E-5,3.5407682E-4,-5.675638E-5,-4.6722035E-4,-3.234233E-5,-1.7422001E-4,-7.128155E-5,7.864376E-5,5.029891E-4,1.3056115E-3,-1.798324E-4,3.0805432E-4,-1.022602E-3,-1.7505774E-4,3.719816E-4,-0E0,-5.94931E-4,1.9975545E-4,3.4106144E-4,1.078515E-3,-1.3305768E-4,1.9676899E-4,5.635665E-4,-2.0700787E-5,2.7410427E-4,-6.125045E-4,7.9811853E-4,2.8120686E-4],"categories":[],"categories_nodes":[],"categories_segments":[],"categories_sizes":[],"default_left":[0,0,0,0,0,0,0,0,0,0,0,0,0,0,0,0,0,0,0,0,0,0,0,0,0,0,0,0,0,0,0,0,0,0,0,0,0,0,0,0,0,0,0,0,0,0,0,0,0,0,0,0,0,0,0,0,0,0,0,0,0,0,0,0,0,0,0,0,0,0,0,0,0,0,0,0,0,0,0,0,0,0,0,0,0,0,0,0,0,0,0,0,0,0,0,0,0,0,0,0,0,0,0,0,0,0,0,0,0,0,0,0,0,0,0,0,0,0,0,0,0,0,0,0,0,0,0,0,0,0,0,0,0,0,0,0,0,0,0,0,0,0,0,0,0,0,0,0,0,0,0,0,0,0,0,0,0,0,0,0,0,0,0,0,0,0,0,0,0,0,0,0,0,0,0,0,0,0,0,0,0,0,0,0,0,0,0,0,0,0,0,0,0,0,0,0,0,0,0,0,0,0,0,0,0,0,0,0,0,0,0,0,0,0,0,0,0,0,0,0,0],"id":5,"left_children":[1,3,5,7,9,11,13,15,17,19,21,23,25,27,29,31,33,35,37,39,41,43,45,47,49,51,53,55,57,59,61,63,65,67,69,71,73,75,77,79,81,83,85,87,89,91,93,-1,95,97,99,101,103,-1,105,107,109,111,113,115,117,-1,119,121,123,125,127,129,131,133,135,137,139,141,143,145,147,149,151,153,155,157,159,161,163,165,167,169,171,-1,173,175,177,179,181,183,185,187,189,-1,191,193,-1,195,197,199,-1,201,-1,-1,-1,203,205,207,-1,209,211,213,215,217,219,-1,-1,-1,-1,-1,-1,-1,-1,-1,-1,-1,-1,-1,-1,-1,-1,-1,-1,-1,-1,-1,-1,-1,-1,-1,-1,-1,-1,-1,-1,-1,-1,-1,-1,-1,-1,-1,-1,-1,-1,-1,-1,-1,-1,-1,-1,-1,-1,-1,-1,-1,-1,-1,-1,-1,-1,-1,-1,-1,-1,-1,-1,-1,-1,-1,-1,-1,-1,-1,-1,-1,-1,-1,-1,-1,-1,-1,-1,-1,-1,-1,-1,-1,-1,-1,-1,-1,-1,-1,-1,-1,-1,-1,-1,-1,-1,-1,-1,-1,-1],"loss_changes":[1.3705449E-1,4.0093765E-2,1.0239948E-1,1.6765729E-2,2.6972799E-2,9.522312E-2,6.786372E-2,2.384245E-2,1.7637167E-2,3.4240928E-2,2.066466E-2,5.5948824E-2,4.5229554E-2,1.078257E-1,9.703955E-2,5.475745E-2,9.417038E-3,8.851099E-3,2.6192326E-2,7.200611E-3,2.0617075E-2,1.971341E-2,1.2055599E-2,5.2125417E-2,1.15333006E-1,3.7312407E-2,1.8547725E-2,1.5274143E-1,4.6269793E-2,3.3241197E-2,9.1581434E-2,2.9875394E-2,7.468846E-2,5.4485193E-3,1.4056105E-2,1.0529712E-2,7.351987E-3,2.4301134E-2,1.5742851E-2,7.1087866E-3,6.6926116E-3,1.2901176E-2,1.7182771E-2,7.083022E-3,2.286528E-2,1.882624E-2,1.3306131E-2,0E0,4.6728328E-2,3.8293846E-2,2.2186592E-2,2.475484E-2,2.9057495E-2,0E0,6.2303226E-3,7.1935564E-2,1.3290751E-1,2.042894E-2,3.638512E-2,3.050325E-2,1.036547E-2,0E0,5.706601E-2,2.0951305E-2,4.5070603E-2,5.1489502E-2,1.2403211E-2,4.2945705E-3,8.887023E-3,7.405389E-3,1.0254817E-2,7.136278E-3,1.0403262E-2,5.831505E-3,7.916724E-3,3.0797321E-2,7.907122E-3,3.605072E-2,1.2380503E-2,3.5122072E-3,3.7157787E-3,4.6796575E-3,4.0361E-3,5.904978E-3,2.1657646E-2,1.8738605E-2,2.7665854E-2,6.872163E-3,9.401482E-3,0E0,1.0047963E-2,5.7872324E-3,1.919493E-2,6.815178E-3,1.0029638E-2,3.797993E-2,5.2838244E-2,2.691252E-2,4.1368335E-2,0E0,8.61755E-3,1.3982747E-2,0E0,2.3031026E-2,1.929808E-2,5.5366824E-4,0E0,4.161884E-2,0E0,0E0,0E0,9.988442E-3,1.5967555E-2,1.7171253E-2,0E0,2.5761059E-2,3.7818104E-2,1.0443617E-2,2.1726195E-2,3.0398227E-2,4.2410083E-3,0E0,0E0,0E0,0E0,0E0,0E0,0E0,0E0,0E0,0E0,0E0,0E0,0E0,0E0,0E0,0E0,0E0,0E0,0E0,0E0,0E0,0E0,0E0,0E0,0E0,0E0,0E0,0E0,0E0,0E0,0E0,0E0,0E0,0E0,0E0,0E0,0E0,0E0,0E0,0E0,0E0,0E0,0E0,0E0,0E0,0E0,0E0,0E0,0E0,0E0,0E0,0E0,0E0,0E0,0E0,0E0,0E0,0E0,0E0,0E0,0E0,0E0,0E0,0E0,0E0,0E0,0E0,0E0,0E0,0E0,0E0,0E0,0E0,0E0,0E0,0E0,0E0,0E0,0E0,0E0,0E0,0E0,0E0,0E0,0E0,0E0,0E0,0E0,0E0,0E0,0E0,0E0,0E0,0E0,0E0,0E0,0E0,0E0,0E0,0E0],"parents":[2147483647,0,0,1,1,2,2,3,3,4,4,5,5,6,6,7,7,8,8,9,9,10,10,11,11,12,12,13,13,14,14,15,15,16,16,17,17,18,18,19,19,20,20,21,21,22,22,23,23,24,24,25,25,26,26,27,27,28,28,29,29,30,30,31,31,32,32,33,33,34,34,35,35,36,36,37,37,38,38,39,39,40,40,41,41,42,42,43,43,44,44,45,45,46,46,48,48,49,49,50,50,51,51,52,52,54,54,55,55,56,56,57,57,58,58,59,59,60,60,62,62,63,63,64,64,65,65,66,66,67,67,68,68,69,69,70,70,71,71,72,72,73,73,74,74,75,75,76,76,77,77,78,78,79,79,80,80,81,81,82,82,83,83,84,84,85,85,86,86,87,87,88,88,90,90,91,91,92,92,93,93,94,94,95,95,96,96,97,97,98,98,100,100,101,101,103,103,104,104,105,105,107,107,111,111,112,112,113,113,115,115,116,116,117,117,118,118,119,119,120,120],"right_children":[2,4,6,8,10,12,14,16,18,20,22,24,26,28,30,32,34,36,38,40,42,44,46,48,50,52,54,56,58,60,62,64,66,68,70,72,74,76,78,80,82,84,86,88,90,92,94,-1,96,98,100,102,104,-1,106,108,110,112,114,116,118,-1,120,122,124,126,128,130,132,134,136,138,140,142,144,146,148,150,152,154,156,158,160,162,164,166,168,170,172,-1,174,176,178,180,182,184,186,188,190,-1,192,194,-1,196,198,200,-1,202,-1,-1,-1,204,206,208,-1,210,212,214,216,218,220,-1,-1,-1,-1,-1,-1,-1,-1,-1,-1,-1,-1,-1,-1,-1,-1,-1,-1,-1,-1,-1,-1,-1,-1,-1,-1,-1,-1,-1,-1,-1,-1,-1,-1,-1,-1,-1,-1,-1,-1,-1,-1,-1,-1,-1,-1,-1,-1,-1,-1,-1,-1,-1,-1,-1,-1,-1,-1,-1,-1,-1,-1,-1,-1,-1,-1,-1,-1,-1,-1,-1,-1,-1,-1,-1,-1,-1,-1,-1,-1,-1,-1,-1,-1,-1,-1,-1,-1,-1,-1,-1,-1,-1,-1,-1,-1,-1,-1,-1,-1],"split_conditions":[1.0210142E0,6.8708974E-1,1.8752813E0,7.299578E-1,3.7525773E-1,8.857716E-1,2.4724946E0,-2.2256587E-1,2.775405E-1,2.8394774E-1,2.4066925E-1,9.84906E-1,9.9527186E-1,-3.2058018E-1,1.046091E0,2.3752804E0,1.290124E0,2.4941022E0,5.896226E-1,1.6471968E0,1.6721233E0,1.375829E0,8.6634845E-1,-2.2874608E0,2.3752804E0,5.010081E-1,-6.227871E-1,2.32405E0,7.2597134E-1,8.935698E-1,1.8825911E-1,2.3297508E0,-3.2058018E-1,1.3797073E-9,1.4701809E-1,2.43695E0,3.133201E-10,2.3752804E0,-2.577165E-1,5.1048845E-9,1.3492408E0,5.074203E-1,9.873684E-1,7.0658684E-1,-2.577165E-1,5.845891E-1,5.00668E-10,9.0532465E-4,1.0189189E0,3.5959595E-1,5.155131E-1,1.0937178E0,-1.8356337E-1,7.65235E-4,9.873684E-1,6.597938E-1,9.9527186E-1,3.3254156E-1,8.216522E-1,-1.1826826E0,5.011547E-1,-1.5110183E-3,2.1817288E0,1.0701079E0,6.7540324E-1,1.6471968E0,2.4941022E0,4.5893368E-1,6.597938E-1,9.912088E-1,5.5846775E-1,6.325971E-2,1.7947192E0,1.5450556E0,4.920635E-1,1.7069447E0,5.349794E-1,8.819742E-1,9.287212E-1,1.0445759E0,-1.8356337E-1,-1.8356337E-1,-1.3111551E-1,2.1742827E-1,9.677419E-1,-3.2058018E-1,1.5782017E0,-5.0829776E-2,-1.3708355E-1,-6.7882304E-4,9.326923E-1,2.543045E-1,7.6890755E-1,9.795082E-1,9.481038E-1,9.813452E-1,1.6706271E0,1.3717024E0,5.010309E-1,1.2851717E-3,6.6999867E-10,1.2821031E0,7.4123585E-4,3.0075673E-10,9.5604396E-1,1.847688E-1,4.5248697E-4,1.3492408E0,-4.937514E-4,3.418091E-3,7.063829E-4,-1.9978227E-1,-1.5203007E-2,9.795082E-1,1.0910842E-3,-3.2058018E-1,5.2844424E-2,9.0930235E-1,-8.2010466E-1,4.77327E-3,1.2578617E-1,2.8181597E-5,-9.433686E-6,-3.301849E-4,1.52688E-4,1.3790486E-4,5.6789117E-4,-4.2401673E-5,9.4085764E-5,-1.4780283E-6,3.3327237E-6,-4.1061714E-5,-4.7283468E-4,2.0084615E-6,-4.6772177E-5,7.149678E-5,9.48778E-6,-5.8388866E-7,-4.8593743E-6,1.972468E-5,1.250713E-4,-8.8572015E-6,-3.8123188E-5,-3.8148166E-4,-6.974258E-5,-3.4108456E-5,9.912384E-5,-3.1345364E-4,-4.2159023E-5,2.8520726E-6,-2.69797E-4,-1.0465641E-5,2.2226734E-6,2.8521137E-7,4.600457E-6,-1.6408779E-4,1.8780904E-5,1.2176587E-4,1.6031223E-5,3.0689298E-5,-9.235978E-6,1.2029874E-5,1.6811795E-6,4.2924043E-5,6.851764E-6,1.7121108E-4,3.96593E-5,5.92937E-6,-2.6001353E-4,8.5255924E-5,-8.834629E-6,-4.522154E-4,-3.9574454E-5,-6.129755E-5,-2.0110278E-4,1.8332818E-7,-2.1581565E-5,-9.685735E-6,-8.673441E-5,-6.821201E-7,3.79999E-5,1.5009004E-5,-7.4779723E-6,5.1371895E-5,-5.7679776E-4,-1.9927231E-4,6.334668E-5,6.370924E-5,-1.863512E-4,2.5412903E-4,9.230801E-5,1.635467E-4,7.609312E-4,-9.388016E-5,3.5407682E-4,-5.675638E-5,-4.6722035E-4,-3.234233E-5,-1.7422001E-4,-7.128155E-5,7.864376E-5,5.029891E-4,1.3056115E-3,-1.798324E-4,3.0805432E-4,-1.022602E-3,-1.7505774E-4,3.719816E-4,-0E0,-5.94931E-4,1.9975545E-4,3.4106144E-4,1.078515E-3,-1.3305768E-4,1.9676899E-4,5.635665E-4,-2.0700787E-5,2.7410427E-4,-6.125045E-4,7.9811853E-4,2.8120686E-4],"split_indices":[5,9,3,8,8,8,3,4,5,5,3,3,9,4,7,7,3,7,13,3,3,7,13,7,7,15,7,3,8,8,9,7,4,1,4,7,1,7,4,1,7,5,13,8,4,5,1,0,7,9,9,7,4,0,8,8,13,8,7,7,15,0,7,7,13,3,7,5,13,13,8,4,3,3,9,7,13,13,13,3,4,4,4,7,13,4,7,4,4,0,8,4,8,9,8,3,7,3,15,0,1,3,0,1,8,7,0,7,0,0,0,4,4,8,0,4,4,9,7,8,8,0,0,0,0,0,0,0,0,0,0,0,0,0,0,0,0,0,0,0,0,0,0,0,0,0,0,0,0,0,0,0,0,0,0,0,0,0,0,0,0,0,0,0,0,0,0,0,0,0,0,0,0,0,0,0,0,0,0,0,0,0,0,0,0,0,0,0,0,0,0,0,0,0,0,0,0,0,0,0,0,0,0,0,0,0,0,0,0,0,0,0,0,0,0,0,0,0,0,0,0],"split_type":[0,0,0,0,0,0,0,0,0,0,0,0,0,0,0,0,0,0,0,0,0,0,0,0,0,0,0,0,0,0,0,0,0,0,0,0,0,0,0,0,0,0,0,0,0,0,0,0,0,0,0,0,0,0,0,0,0,0,0,0,0,0,0,0,0,0,0,0,0,0,0,0,0,0,0,0,0,0,0,0,0,0,0,0,0,0,0,0,0,0,0,0,0,0,0,0,0,0,0,0,0,0,0,0,0,0,0,0,0,0,0,0,0,0,0,0,0,0,0,0,0,0,0,0,0,0,0,0,0,0,0,0,0,0,0,0,0,0,0,0,0,0,0,0,0,0,0,0,0,0,0,0,0,0,0,0,0,0,0,0,0,0,0,0,0,0,0,0,0,0,0,0,0,0,0,0,0,0,0,0,0,0,0,0,0,0,0,0,0,0,0,0,0,0,0,0,0,0,0,0,0,0,0,0,0,0,0,0,0,0,0,0,0,0,0,0,0,0,0,0,0],"sum_hessian":[1.6825858E6,1.6760534E6,6.53226E3,1.1510242E6,5.250292E5,6.0228877E3,5.0937186E2,8.381449E5,3.128794E5,1.9487933E5,3.3014984E5,5.276617E3,7.4627045E2,2.1198038E2,2.9739148E2,9.885277E3,8.2825956E5,2.544569E5,5.842251E4,1.4180117E5,5.3078156E4,2.7298813E3,3.2741997E5,3.8374902E3,1.4391272E3,7.155302E2,3.0740229E1,8.9180305E1,1.2280007E2,2.4565546E2,5.173603E1,9.291763E3,5.9351416E2,6.996724E5,1.285872E5,2.4655527E5,7.9016353E3,7.1649653E3,5.1257547E4,1.2894907E5,1.2852099E4,4.7900887E4,5.1772715E3,2.2716355E3,4.5824588E2,2.7231444E5,5.510553E4,9.780586E0,3.8277095E3,1.4095428E3,2.9584352E1,5.2719734E1,6.628105E2,1.0782887E1,1.9957342E1,7.8212524E1,1.0967787E1,3.880276E1,8.399731E1,1.365135E2,1.0914195E2,8.358419E0,4.337761E1,9.16346E3,1.2830254E2,1.6564691E2,4.2786725E2,6.996315E5,4.0874E1,1.2700068E5,1.5865222E3,2.4550373E5,1.0515311E3,7.7407495E3,1.6088554E2,7.083155E3,8.181035E1,3.1147137E2,5.0946074E4,1.24883055E5,4.0660122E3,9.734391E3,3.1177078E3,3.8085848E4,9.815039E3,4.735757E3,4.4151462E2,1.3222971E3,9.493383E2,9.728142E0,4.4851773E2,2.7020516E5,2.1092866E3,2.8632832E4,2.64727E4,3.3729333E3,4.5477618E2,2.9164795E2,1.1178949E3,1.1739685E1,1.7844667E1,4.2869354E1,9.850381E0,9.206006E1,5.707504E2,1.3982911E1,5.974431E0,6.931056E1,8.901957E0,5.05979E0,5.9079967E0,2.4946129E1,1.3856632E1,7.627107E1,7.7262383E0,2.9800642E1,1.0671287E2,7.056263E1,3.8579327E1,3.155614E1,1.1821469E1,5.6063887E3,3.5570713E3,8.660921E1,4.1693333E1,8.4590126E1,8.105679E1,1.496643E2,2.7820294E2,6.711883E5,2.844316E4,3.1952923E1,8.921076E0,1.26541695E5,4.5898947E2,7.3171735E2,8.548048E2,1.5378461E5,9.171913E4,8.876575E2,1.6387363E2,6.5544673E3,1.1862822E3,1.2969929E1,1.4791562E2,6.8186675E3,2.644872E2,5.8889206E1,2.292114E1,2.0214766E2,1.0932371E2,3.4012996E4,1.693308E4,8.321731E4,4.1665742E4,1.5972729E1,4.0500396E3,6.194209E1,9.672448E3,4.314896E2,2.6862183E3,2.6329277E4,1.1756569E4,4.78334E3,5.031699E3,1.6528432E2,4.5704727E3,3.739793E2,6.753531E1,1.2589994E2,1.1963972E3,7.9120846E0,9.414263E2,3.5071506E2,9.7802666E1,2.683962E5,1.808957E3,1.3812448E3,7.2804193E2,2.7946709E4,6.8612213E2,2.3140281E4,3.3324182E3,3.3590723E3,1.3860971E1,2.5228795E2,2.0248824E2,1.9938156E2,9.226639E1,3.322779E2,7.8561694E2,5.98741E0,1.1857257E1,2.6942623E1,1.5926731E1,3.0893866E1,6.1166195E1,3.0534006E2,2.6541037E2,7.985452E0,5.9974585E0,5.7687386E1,1.16231785E1,1.4969235E1,9.976893E0,5.9191613E0,7.937471E0,4.645158E1,2.9819489E1,7.8720183E0,2.1928623E1,9.526119E1,1.1451674E1,5.164365E1,1.8918978E1,1.4743182E1,2.3836143E1,6.985686E0,2.4570456E1,5.9198184E0,5.9016504E0],"tree_param":{"num_deleted":"0","num_feature":"16","num_nodes":"221","size_leaf_vector":"1"}},{"base_weights":[1.0508586E-5,-3.0484753E-5,1.1940254E-3,5.0829956E-5,-2.486518E-4,8.799315E-4,6.2930463E-3,-6.636645E-5,2.985973E-4,-1.562762E-4,-1.9798414E-3,1.0275962E-3,-1.0293856E-3,7.695875E-3,-1.2917936E-2,-1.5766156E-4,4.5344426E-5,8.4825595E-5,6.7386293E-4,-6.169139E-5,-5.323913E-4,-1.3333248E-2,-1.7321715E-3,7.4924494E-4,3.7433896E-3,1.5214102E-3,-4.6303147E-3,6.140124E-3,2.7138382E-2,-1.902137E-2,4.0434435E-2,4.5152965E-6,-2.0531962E-4,4.0135274E-5,2.950488E-3,1.6180724E-4,-5.110973E-4,7.395201E-5,1.1053121E-3,-5.1255414E-5,-3.25338E-3,-2.1863867E-4,-1.2220885E-3,-5.071234E-3,-1.86255E-2,-5.140323E-4,-3.3375053E-3,8.243231E-4,-4.2261304E-3,4.0440396E-3,-2.0987477E-2,-2.0707697E-3,3.3837587E-3,-1.1379881E-3,-4.2776144E-3,8.000577E-3,-2.4104029E-2,4.6782024E-4,6.420939E-2,-6.37941E-2,-1.3113433E-2,4.813621E-3,1.2837106E-3,-8.223505E-6,3.2286716E-3,-1.9012141E-4,-8.680722E-4,1.1005419E-5,4.6026858E-4,-1.8877834E-2,4.6866545E-3,7.7617624E-5,9.0311636E-4,-2.777471E-4,-2.2661139E-3,2.2612099E-4,-5.5285045E-3,8.9917E-4,9.4407685E-3,-9.897384E-5,2.5625908E-4,1.5937994E-4,-4.9895346E-3,-3.404273E-4,9.6243474E-4,-1.0898323E-3,-3.2426328E-3,-7.169801E-3,-0E0,-1.3400965E-2,-2.4948917E-2,3.8579068E-4,-3.3165214E-3,-2.529504E-3,-4.876E-3,7.8194303E-4,9.452307E-3,-1.9363353E-2,-2.5059378E-3,1.2614861E-2,3.4437224E-3,-1.0145742E-3,-1.007669E-2,1.9092443E-3,-6.017753E-3,2.013012E-3,2.015727E-2,-3.8070602E-3,-2.9794512E-2,3.0005317E-2,6.9928034E-3,-8.968773E-6,-4.0121675E-2,-1.0882929E-2,6.5207906E-2,2.500015E-3,5.155439E-2,-1.161019E-4,-1.183558E-3,-5.480583E-3,-2.9505894E-2,3.6324796E-4,-3.82554E-4,2.148638E-7,-1.3993247E-5,3.0403076E-5,1.755563E-4,-2.3807631E-6,1.6498841E-5,-1.5427526E-5,2.5765978E-5,3.054724E-7,-1.5040277E-5,5.2072987E-6,2.8432778E-4,-1.3927011E-4,-4.255254E-4,-3.1046165E-4,7.504071E-5,5.305475E-7,1.2939581E-5,-3.1367048E-7,3.9724422E-5,-3.974646E-6,9.0954636E-5,-8.331206E-6,-9.079482E-5,2.3003986E-6,4.420325E-5,1.2966832E-4,-8.47794E-5,8.968851E-6,2.3679466E-5,6.5717104E-5,2.0337636E-4,1.3055674E-6,-2.1758558E-6,5.4689004E-5,2.7863757E-6,-2.3174075E-6,2.2379866E-4,-9.405956E-5,-3.782431E-5,-3.529733E-6,-3.9593735E-5,-1.4283962E-5,2.0131452E-5,4.9409937E-5,-1.3813169E-5,-2.8659679E-5,-2.5660236E-4,-5.4195058E-5,-1.6232539E-4,-6.708856E-5,1.0037078E-4,-1.8379086E-4,-6.215767E-5,-2.685449E-4,-4.6808383E-4,3.1872296E-5,-3.4402296E-6,-3.1155807E-5,-2.5966903E-4,-3.9517163E-5,-2.8556246E-6,-5.1287527E-5,-2.8858293E-4,8.61686E-6,5.5199453E-5,-3.177589E-5,3.119941E-4,-1.4268787E-4,-6.3733547E-4,-5.156632E-5,9.5808806E-5,4.2995333E-4,1.2216602E-4,7.610163E-5,2.0688572E-5,1.2501061E-4,-2.1963543E-4,1.0659539E-4,-9.8866774E-5,-1.394146E-4,1.3369839E-5,-5.4208015E-4,2.8343138E-5,1.6062697E-3,7.942847E-5,-1.2659734E-4,-2.6458805E-5,-7.422785E-4,-1.9525365E-4,1.3117791E-6,5.895414E-4,5.7070025E-5,2.0135786E-4,-6.0854683E-4,2.7831466E-4,-2.0673634E-3,-3.2731242E-4,-3.867327E-4,1.7163936E-4,1.3916156E-3,-3.0054615E-4,1.3690267E-3,4.8912613E-4,6.846737E-5,-3.2429595E-4,-8.7498757E-4,-8.5717365E-5],"categories":[],"categories_nodes":[],"categories_segments":[],"categories_sizes":[],"default_left":[0,0,0,0,0,0,0,0,0,0,0,0,0,0,0,0,0,0,0,0,0,0,0,0,0,0,0,0,0,0,0,0,0,0,0,0,0,0,0,0,0,0,0,0,0,0,0,0,0,0,0,0,0,0,0,0,0,0,0,0,0,0,0,0,0,0,0,0,0,0,0,0,0,0,0,0,0,0,0,0,0,0,0,0,0,0,0,0,0,0,0,0,0,0,0,0,0,0,0,0,0,0,0,0,0,0,0,0,0,0,0,0,0,0,0,0,0,0,0,0,0,0,0,0,0,0,0,0,0,0,0,0,0,0,0,0,0,0,0,0,0,0,0,0,0,0,0,0,0,0,0,0,0,0,0,0,0,0,0,0,0,0,0,0,0,0,0,0,0,0,0,0,0,0,0,0,0,0,0,0,0,0,0,0,0,0,0,0,0,0,0,0,0,0,0,0,0,0,0,0,0,0,0,0,0,0,0,0,0,0,0,0,0,0,0,0,0,0,0,0,0,0,0,0,0,0,0,0,0,0,0],"id":6,"left_children":[1,3,5,7,9,11,13,15,17,19,21,23,25,27,29,31,33,35,37,39,41,43,45,47,49,51,53,55,57,59,61,63,65,67,69,71,73,75,77,79,81,83,85,87,89,91,93,95,97,99,101,103,105,-1,107,109,111,113,115,117,119,121,-1,123,125,127,129,131,133,135,137,139,141,143,145,147,149,151,153,155,157,159,161,163,165,167,169,171,173,175,177,179,181,183,185,187,189,191,193,195,197,-1,199,201,203,205,207,209,211,213,215,217,219,221,223,-1,225,-1,-1,227,229,-1,-1,-1,-1,-1,-1,-1,-1,-1,-1,-1,-1,-1,-1,-1,-1,-1,-1,-1,-1,-1,-1,-1,-1,-1,-1,-1,-1,-1,-1,-1,-1,-1,-1,-1,-1,-1,-1,-1,-1,-1,-1,-1,-1,-1,-1,-1,-1,-1,-1,-1,-1,-1,-1,-1,-1,-1,-1,-1,-1,-1,-1,-1,-1,-1,-1,-1,-1,-1,-1,-1,-1,-1,-1,-1,-1,-1,-1,-1,-1,-1,-1,-1,-1,-1,-1,-1,-1,-1,-1,-1,-1,-1,-1,-1,-1,-1,-1,-1,-1,-1,-1,-1,-1,-1,-1,-1,-1,-1,-1],"loss_changes":[8.167599E-2,2.8863518E-2,9.020189E-2,3.4415804E-2,7.062963E-2,1.4968496E-2,8.807938E-2,8.20634E-3,3.0525792E-2,1.4914959E-2,6.278304E-2,3.7217822E-2,3.499949E-2,9.183225E-2,7.243039E-2,3.4238612E-3,5.4506906E-3,1.11212805E-2,3.573793E-2,1.1135937E-2,1.8221073E-2,2.0628631E-2,4.278879E-2,1.66726E-2,3.393604E-2,1.4915463E-2,4.8778668E-2,1.5871447E-1,2.2217095E-1,5.192621E-2,5.199862E-2,4.154921E-3,3.4387307E-3,4.415951E-3,2.4349153E-2,1.3395155E-2,1.1335073E-2,4.9219783E-2,1.379388E-1,4.900556E-3,6.495974E-3,8.326481E-3,7.0016794E-3,2.0356965E-3,9.156488E-3,3.142839E-2,1.1676006E-2,1.6018596E-2,1.7070318E-2,2.3134232E-2,3.6372215E-2,1.196502E-2,3.3573963E-2,0E0,1.8592631E-2,5.859141E-2,6.2721394E-2,9.728739E-2,1.6337061E-1,4.101973E-2,2.1811815E-2,1.4174137E-2,0E0,2.9842858E-3,3.0825203E-3,3.1905267E-3,9.252771E-3,5.981763E-3,1.6438134E-2,5.1468518E-3,2.7059706E-2,6.453897E-3,4.8269168E-2,9.452654E-3,2.6722843E-2,6.9797523E-3,3.6180194E-2,1.3162389E-2,5.689901E-2,4.805987E-3,5.0208597E-3,2.496765E-3,3.6490038E-3,7.5572003E-3,8.076023E-3,6.238172E-3,2.5227727E-2,2.0724572E-3,2.5180173E-3,2.1328032E-3,4.204437E-3,1.4164723E-2,4.0766574E-2,1.0328565E-2,3.9522223E-2,1.1767246E-2,4.2305846E-2,1.6197063E-2,1.08111175E-2,1.6645513E-2,2.0740334E-2,0E0,7.837374E-3,2.6142253E-2,1.4997636E-2,2.0238917E-2,1.6736722E-1,1.6559614E-2,1.1148237E-2,6.4104155E-2,5.5700272E-2,7.634433E-2,1.6449112E-1,5.9202302E-2,8.978023E-2,0E0,5.706182E-2,0E0,0E0,2.896483E-2,5.2595243E-2,0E0,0E0,0E0,0E0,0E0,0E0,0E0,0E0,0E0,0E0,0E0,0E0,0E0,0E0,0E0,0E0,0E0,0E0,0E0,0E0,0E0,0E0,0E0,0E0,0E0,0E0,0E0,0E0,0E0,0E0,0E0,0E0,0E0,0E0,0E0,0E0,0E0,0E0,0E0,0E0,0E0,0E0,0E0,0E0,0E0,0E0,0E0,0E0,0E0,0E0,0E0,0E0,0E0,0E0,0E0,0E0,0E0,0E0,0E0,0E0,0E0,0E0,0E0,0E0,0E0,0E0,0E0,0E0,0E0,0E0,0E0,0E0,0E0,0E0,0E0,0E0,0E0,0E0,0E0,0E0,0E0,0E0,0E0,0E0,0E0,0E0,0E0,0E0,0E0,0E0,0E0,0E0,0E0,0E0,0E0,0E0,0E0,0E0,0E0,0E0,0E0,0E0,0E0,0E0,0E0,0E0,0E0,0E0,0E0,0E0],"parents":[2147483647,0,0,1,1,2,2,3,3,4,4,5,5,6,6,7,7,8,8,9,9,10,10,11,11,12,12,13,13,14,14,15,15,16,16,17,17,18,18,19,19,20,20,21,21,22,22,23,23,24,24,25,25,26,26,27,27,28,28,29,29,30,30,31,31,32,32,33,33,34,34,35,35,36,36,37,37,38,38,39,39,40,40,41,41,42,42,43,43,44,44,45,45,46,46,47,47,48,48,49,49,50,50,51,51,52,52,54,54,55,55,56,56,57,57,58,58,59,59,60,60,61,61,63,63,64,64,65,65,66,66,67,67,68,68,69,69,70,70,71,71,72,72,73,73,74,74,75,75,76,76,77,77,78,78,79,79,80,80,81,81,82,82,83,83,84,84,85,85,86,86,87,87,88,88,89,89,90,90,91,91,92,92,93,93,94,94,95,95,96,96,97,97,98,98,99,99,100,100,102,102,103,103,104,104,105,105,106,106,107,107,108,108,109,109,110,110,111,111,112,112,113,113,114,114,116,116,119,119,120,120],"right_children":[2,4,6,8,10,12,14,16,18,20,22,24,26,28,30,32,34,36,38,40,42,44,46,48,50,52,54,56,58,60,62,64,66,68,70,72,74,76,78,80,82,84,86,88,90,92,94,96,98,100,102,104,106,-1,108,110,112,114,116,118,120,122,-1,124,126,128,130,132,134,136,138,140,142,144,146,148,150,152,154,156,158,160,162,164,166,168,170,172,174,176,178,180,182,184,186,188,190,192,194,196,198,-1,200,202,204,206,208,210,212,214,216,218,220,222,224,-1,226,-1,-1,228,230,-1,-1,-1,-1,-1,-1,-1,-1,-1,-1,-1,-1,-1,-1,-1,-1,-1,-1,-1,-1,-1,-1,-1,-1,-1,-1,-1,-1,-1,-1,-1,-1,-1,-1,-1,-1,-1,-1,-1,-1,-1,-1,-1,-1,-1,-1,-1,-1,-1,-1,-1,-1,-1,-1,-1,-1,-1,-1,-1,-1,-1,-1,-1,-1,-1,-1,-1,-1,-1,-1,-1,-1,-1,-1,-1,-1,-1,-1,-1,-1,-1,-1,-1,-1,-1,-1,-1,-1,-1,-1,-1,-1,-1,-1,-1,-1,-1,-1,-1,-1,-1,-1,-1,-1,-1,-1,-1,-1,-1,-1],"split_conditions":[9.677419E-1,7.299578E-1,3.291E1,1.8285774E-10,3.412E1,2.697E1,9.5604396E-1,5.311871E-1,1.0175748E0,2.248E1,5.010246E-1,2.353E1,-2.1852532E-1,1.9227858E0,3.8353543E-9,-9.952869E-1,6.646E1,1.1700937E0,4.8058254E-1,4.0323453E-8,1.6418006E0,5.010101E-1,1.0211446E0,2.312E1,3.7316263E0,2.85E1,5.966587E-2,6.646E1,5.011792E-1,4.3956045E-2,1.9781917E0,7.0658684E-1,3.245E1,8.857716E-1,4.7904193E-2,3.412E1,2.756E1,5.983E1,5.983E1,3.8669162E-10,1.342E1,3.197E1,2.0408452E0,4.9598393E-1,8.782051E-1,5.983E1,1.7746854E0,2.299E1,5.010101E-1,-1.8795906E0,9.912088E-1,2.771E1,5.0119615E-1,-1.1379881E-3,2.5888886E0,5.5670105E-2,5.0403225E-1,6.646E1,9.40367E-1,5.368E1,2.1026046E0,1.143943E0,1.2837106E-3,7.8451884E-1,5.368E1,3.156E1,7.6890755E-1,3.0179873E0,5.983E1,1.6026063E0,5.966587E-2,7.3682824E-9,7.4554706E-1,2.667E1,7.728395E-1,5.368E1,1.8036072E-1,1.8752813E0,8.158996E-1,5.010309E-1,5.010081E-1,9.0930235E-1,1.4585878E0,5.012225E-1,5.010101E-1,5.6144694E-12,3.291E1,8.857716E-1,3.8689217E-1,1.3479111E-10,2.0408452E0,5.010482E-1,9.795082E-1,9.40459E-10,5.983E1,9.9527186E-1,5.740741E-1,9.9527186E-1,8.819742E-1,5.27034E-11,5.010309E-1,-1.0145742E-3,2.679743E-10,5.010707E-1,5.010482E-1,-2.903664E0,5.0119907E-1,6.960743E-11,8.935698E-1,9.795082E-1,9.638009E-1,-1.730228E0,8.791209E-3,5.010309E-1,6.442786E-1,2.500015E-3,4.77327E-3,-1.161019E-4,-1.183558E-3,5.011792E-1,9.795082E-1,3.6324796E-4,-3.82554E-4,2.148638E-7,-1.3993247E-5,3.0403076E-5,1.755563E-4,-2.3807631E-6,1.6498841E-5,-1.5427526E-5,2.5765978E-5,3.054724E-7,-1.5040277E-5,5.2072987E-6,2.8432778E-4,-1.3927011E-4,-4.255254E-4,-3.1046165E-4,7.504071E-5,5.305475E-7,1.2939581E-5,-3.1367048E-7,3.9724422E-5,-3.974646E-6,9.0954636E-5,-8.331206E-6,-9.079482E-5,2.3003986E-6,4.420325E-5,1.2966832E-4,-8.47794E-5,8.968851E-6,2.3679466E-5,6.5717104E-5,2.0337636E-4,1.3055674E-6,-2.1758558E-6,5.4689004E-5,2.7863757E-6,-2.3174075E-6,2.2379866E-4,-9.405956E-5,-3.782431E-5,-3.529733E-6,-3.9593735E-5,-1.4283962E-5,2.0131452E-5,4.9409937E-5,-1.3813169E-5,-2.8659679E-5,-2.5660236E-4,-5.4195058E-5,-1.6232539E-4,-6.708856E-5,1.0037078E-4,-1.8379086E-4,-6.215767E-5,-2.685449E-4,-4.6808383E-4,3.1872296E-5,-3.4402296E-6,-3.1155807E-5,-2.5966903E-4,-3.9517163E-5,-2.8556246E-6,-5.1287527E-5,-2.8858293E-4,8.61686E-6,5.5199453E-5,-3.177589E-5,3.119941E-4,-1.4268787E-4,-6.3733547E-4,-5.156632E-5,9.5808806E-5,4.2995333E-4,1.2216602E-4,7.610163E-5,2.0688572E-5,1.2501061E-4,-2.1963543E-4,1.0659539E-4,-9.8866774E-5,-1.394146E-4,1.3369839E-5,-5.4208015E-4,2.8343138E-5,1.6062697E-3,7.942847E-5,-1.2659734E-4,-2.6458805E-5,-7.422785E-4,-1.9525365E-4,1.3117791E-6,5.895414E-4,5.7070025E-5,2.0135786E-4,-6.0854683E-4,2.7831466E-4,-2.0673634E-3,-3.2731242E-4,-3.867327E-4,1.7163936E-4,1.3916156E-3,-3.0054615E-4,1.3690267E-3,4.8912613E-4,6.846737E-5,-3.2429595E-4,-8.7498757E-4,-8.5717365E-5],"split_indices":[10,8,6,1,6,6,8,11,3,6,14,6,0,3,1,0,6,0,10,1,0,14,0,6,3,6,8,6,14,11,3,8,6,10,10,6,6,6,6,1,6,6,3,10,8,6,0,6,14,0,11,6,14,0,0,8,8,6,11,6,0,3,0,12,6,6,10,3,6,3,12,1,10,6,10,6,12,3,10,14,14,10,0,14,14,1,6,12,11,1,3,14,8,1,6,11,8,10,11,1,14,0,1,14,14,0,14,1,11,10,12,0,12,14,8,0,12,0,0,14,8,0,0,0,0,0,0,0,0,0,0,0,0,0,0,0,0,0,0,0,0,0,0,0,0,0,0,0,0,0,0,0,0,0,0,0,0,0,0,0,0,0,0,0,0,0,0,0,0,0,0,0,0,0,0,0,0,0,0,0,0,0,0,0,0,0,0,0,0,0,0,0,0,0,0,0,0,0,0,0,0,0,0,0,0,0,0,0,0,0,0,0,0,0,0,0,0,0,0,0,0,0,0,0,0,0,0,0,0,0,0],"split_type":[0,0,0,0,0,0,0,0,0,0,0,0,0,0,0,0,0,0,0,0,0,0,0,0,0,0,0,0,0,0,0,0,0,0,0,0,0,0,0,0,0,0,0,0,0,0,0,0,0,0,0,0,0,0,0,0,0,0,0,0,0,0,0,0,0,0,0,0,0,0,0,0,0,0,0,0,0,0,0,0,0,0,0,0,0,0,0,0,0,0,0,0,0,0,0,0,0,0,0,0,0,0,0,0,0,0,0,0,0,0,0,0,0,0,0,0,0,0,0,0,0,0,0,0,0,0,0,0,0,0,0,0,0,0,0,0,0,0,0,0,0,0,0,0,0,0,0,0,0,0,0,0,0,0,0,0,0,0,0,0,0,0,0,0,0,0,0,0,0,0,0,0,0,0,0,0,0,0,0,0,0,0,0,0,0,0,0,0,0,0,0,0,0,0,0,0,0,0,0,0,0,0,0,0,0,0,0,0,0,0,0,0,0,0,0,0,0,0,0,0,0,0,0,0,0,0,0,0,0,0,0],"sum_hessian":[1.6832799E6,1.6269218E6,5.635804E4,1.1851562E6,4.417656E5,5.3089754E4,3.2682834E3,8.0455925E5,3.80597E5,4.1939203E5,2.2373541E4,4.9282684E4,3.8070688E3,3.0464487E3,2.2183492E2,4.427757E5,3.6178353E5,2.4248589E5,1.3811111E5,3.3513484E5,8.42572E4,4.765718E2,2.1896969E4,4.4704207E4,4.578476E3,2.2272727E3,1.5797961E3,2.8215342E3,2.2491457E2,1.9939273E2,2.2442175E1,1.0052536E5,3.422503E5,3.6113912E5,6.444177E2,2.1475728E5,2.7728604E4,5.7784094E4,8.032701E4,3.3404547E5,1.0893564E3,5.792056E4,2.6336645E4,1.8693233E2,2.8963947E2,1.2453021E4,9.443947E3,4.4041535E4,6.626738E2,4.5240864E3,5.438994E1,7.589608E2,1.4683118E3,5.7813654E0,1.5740149E3,2.6585122E3,1.6302177E2,1.3113144E2,9.3783134E1,2.2700108E1,1.7669263E2,1.484289E1,7.5992856E0,1.0012757E5,3.9779092E2,3.345902E5,7.6601304E3,3.3774153E5,2.3397582E4,4.6890423E1,5.9752734E2,1.9286512E5,2.1892154E4,2.4478861E4,3.2497417E3,5.625784E4,1.5262554E3,7.838972E4,1.9372913E3,2.891962E5,4.484928E4,3.6584528E2,7.235112E2,5.251272E4,5.407841E3,2.472292E4,1.6137241E3,1.329511E2,5.3981236E1,1.5987648E2,1.2976299E2,9.424423E3,3.0285989E3,6.1960225E3,3.2479248E3,4.3827562E4,2.1397162E2,6.678903E1,5.9588477E2,2.948098E2,4.2292764E3,7.623818E0,4.676612E1,3.7696182E2,3.8199902E2,1.3581798E3,1.10131996E2,1.5462052E3,2.7809673E1,1.1564712E2,2.5428652E3,6.543359E1,9.758818E1,1.11701E2,1.9430433E1,7.205759E0,8.657738E1,8.972443E0,1.3727665E1,1.2120063E2,5.5492E1,8.942429E0,5.9004617E0,9.7903875E4,2.2236934E3,3.7485645E2,2.2934465E1,3.332698E5,1.3203904E3,6.7517275E3,9.0840283E2,3.33963E5,3.7785486E3,2.3366822E4,3.0758802E1,3.2935272E1,1.39551525E1,2.7695723E1,5.698316E2,1.8648764E5,6.3774863E3,1.5729108E4,6.1630464E3,2.4323979E4,1.5488408E2,2.4963994E3,7.5334247E2,5.5666875E4,5.9096436E2,1.2551845E2,1.4007368E3,6.8074945E4,1.0314772E4,1.2517814E3,6.855099E2,8.0998266E4,2.0819794E5,2.7577274E2,4.4573508E4,3.588588E2,6.986471E0,2.8978552E2,4.3372568E2,5.1643246E4,8.6947205E2,1.3261654E3,4.0816753E3,2.3077298E2,2.4492146E4,1.5389822E3,7.474193E1,9.397597E1,3.897513E1,3.199001E1,2.1991226E1,1.3090195E2,2.8974537E1,1.08839195E2,2.0923798E1,2.1695203E3,7.2549023E3,2.9091926E3,1.194062E2,4.6996787E3,1.4963435E3,3.141256E3,1.066687E2,4.301417E4,8.133924E2,1.22710526E2,9.12611E1,5.491325E1,1.1875785E1,5.1111636E2,8.476842E1,2.8782127E1,2.6602768E2,1.6067521E3,2.6225244E3,1.29064E1,3.3859722E1,2.2438124E2,1.5258058E2,2.1644421E2,1.655548E2,8.862635E0,1.3493171E3,1.1524273E1,9.860773E1,3.0309222E2,1.2431129E3,7.9117136E0,1.989796E1,4.4652634E1,7.099448E1,2.0549958E3,4.8786945E2,2.0528418E1,4.4905178E1,8.510404E0,8.9077774E1,6.0868057E1,5.0832943E1,1.2531213E1,6.8992205E0,1.2816024E1,7.376135E1,7.9471375E1,4.172925E1,1.8753569E1,3.6738434E1],"tree_param":{"num_deleted":"0","num_feature":"16","num_nodes":"231","size_leaf_vector":"1"}},{"base_weights":[1.992235E-6,-6.297615E-5,6.7573204E-4,2.4280124E-3,-6.876895E-5,5.819713E-4,3.5949545E-3,7.931467E-4,2.3591097E-2,-1.2029664E-4,1.8837197E-4,2.918047E-4,1.5640714E-3,2.05997E-3,1.2123038E-2,4.2464915E-3,-9.345283E-3,3.2111015E-2,-5.9315497E-3,-7.6706536E-5,-3.607871E-4,3.4863967E-4,-2.511274E-5,4.6974342E-4,-5.1568507E-4,8.33708E-3,1.4359304E-3,3.4950248E-3,-5.564807E-4,3.0934298E-2,3.4992022E-3,2.4461623E-3,2.7930176E-2,-1.9962173E-2,-2.9045625E-3,3.976693E-2,5.000493E-3,6.38272E-3,-2.5720231E-2,-1.700846E-4,4.2765885E-5,-2.266761E-4,-1.2695332E-3,3.2016623E-4,1.7494725E-3,-2.1737984E-3,9.362536E-6,6.280327E-3,3.9779698E-4,-9.508553E-3,-2.2060367E-4,4.8925344E-2,3.764512E-3,-7.630038E-3,1.4865339E-3,-1.2847619E-2,3.7292938E-3,-4.7415695E-3,7.129851E-4,8.3489396E-2,2.3584971E-2,7.992405E-3,-3.3583425E-3,2.3569318E-2,1.2349539E-3,6.0198534E-2,-1.5698674E-3,-6.4877653E-3,-4.3073297E-2,-1.3753759E-3,-2.527566E-2,2.7744332E-2,6.54094E-2,-3.159757E-4,1.0281776E-2,-7.7059004E-3,2.3436753E-2,-6.452646E-3,-6.9068297E-4,-1.2778603E-4,-9.951111E-4,4.0940402E-5,1.406508E-2,-1.8089684E-4,-1.0862952E-3,-7.3301105E-4,-2.5971986E-3,3.5310673E-4,-5.4932083E-4,3.4513397E-3,-6.551E-5,1.2689444E-3,-5.2994634E-3,-3.2810378E-3,2.5616633E-5,1.76737E-3,2.9444262E-2,-6.2473054E-4,5.584668E-4,-1.2618086E-2,7.4618585E-2,-2.00602E-3,5.9244677E-4,1.1030109E-1,8.883389E-3,7.158842E-3,-2.059508E-2,-3.432767E-2,-1.9409661E-3,2.583269E-3,1.1181897E-3,-4.2157824E-4,-7.9002895E-4,1.7680699E-2,3.4036306E-3,-9.833761E-3,1.0850829E-3,1.6573447E-4,6.7127757E-3,2.1639145E-3,5.4818496E-2,3.276284E-2,-1.436082E-3,2.935509E-3,1.5578907E-2,-2.829123E-4,-2.0466854E-3,4.4311277E-5,4.5288622E-4,-6.660921E-5,5.1209066E-5,9.998329E-4,5.729522E-5,3.1871677E-4,-7.2758965E-5,2.2823806E-4,-1.8404979E-4,-4.4203099E-4,-9.4673765E-4,-1.9760961E-4,1.0774944E-5,-6.935126E-4,2.1268576E-4,6.3982664E-4,2.1390784E-4,1.1294312E-3,5.087057E-4,-1.0063941E-4,2.7530093E-4,-2.2365735E-4,1.17000985E-4,4.3298464E-4,1.13582555E-5,-2.791193E-4,1.7463282E-4,6.708447E-6,-1.8754018E-6,-4.8288302E-6,-4.9668703E-5,1.7534022E-7,1.04735145E-5,3.0051026E-4,-2.5469987E-4,-3.342829E-6,3.2750604E-6,-3.4353943E-5,-7.956723E-6,3.553988E-5,-1.0719594E-5,-1.9733608E-5,-4.6032772E-5,6.956909E-6,2.2912386E-6,-5.5736227E-6,-1.08401684E-4,-7.217162E-5,4.73487E-5,1.2374097E-5,-6.868383E-5,-0E0,2.8732725E-4,-6.820575E-4,-5.9190646E-5,-1.0511624E-5,-2.7525236E-4,-9.598771E-7,5.4826387E-6,5.678279E-4,8.744924E-6,1.505209E-4,7.755723E-4,6.3163025E-5,-9.838643E-6,1.1073893E-5,1.9615154E-6,3.1371612E-5,-3.3879085E-4,-2.2683191E-4,1.3249291E-3,-1.2946094E-4,-1.9298179E-5,1.446669E-5,-1.7033999E-5,6.326286E-4,1.9000171E-3,-5.265557E-4,5.7736435E-4,4.7670477E-5,4.6376808E-4,-1.144363E-3,-9.282849E-5,2.2310949E-6,-8.082624E-4,1.0908768E-4,-1.7450006E-4,2.7418206E-4,2.8463028E-5,1.5724636E-5,-2.0680793E-5,-2.523806E-4,9.353337E-5,-1.9581165E-4,3.1785088E-4,3.6671165E-5,1.6288113E-4,-4.799256E-4,-9.093242E-5,-3.111779E-5,2.0803994E-4,3.384885E-5,-2.360002E-5,4.1637762E-5,4.466072E-4,2.844946E-4,8.3760056E-4,1.5958633E-3,3.0611636E-4,-1.0136986E-3,1.1424274E-4,8.185378E-6,1.697191E-4,3.5148958E-4,7.6098E-5,-6.5757154E-6,-1.1115115E-4],"categories":[],"categories_nodes":[],"categories_segments":[],"categories_sizes":[],"default_left":[0,0,0,0,0,0,0,0,0,0,0,0,0,0,0,0,0,0,0,0,0,0,0,0,0,0,0,0,0,0,0,0,0,0,0,0,0,0,0,0,0,0,0,0,0,0,0,0,0,0,0,0,0,0,0,0,0,0,0,0,0,0,0,0,0,0,0,0,0,0,0,0,0,0,0,0,0,0,0,0,0,0,0,0,0,0,0,0,0,0,0,0,0,0,0,0,0,0,0,0,0,0,0,0,0,0,0,0,0,0,0,0,0,0,0,0,0,0,0,0,0,0,0,0,0,0,0,0,0,0,0,0,0,0,0,0,0,0,0,0,0,0,0,0,0,0,0,0,0,0,0,0,0,0,0,0,0,0,0,0,0,0,0,0,0,0,0,0,0,0,0,0,0,0,0,0,0,0,0,0,0,0,0,0,0,0,0,0,0,0,0,0,0,0,0,0,0,0,0,0,0,0,0,0,0,0,0,0,0,0,0,0,0,0,0,0,0,0,0,0,0,0,0,0,0,0,0,0,0,0,0,0,0,0,0,0,0,0,0,0,0,0,0,0,0],"id":7,"left_children":[1,3,5,7,9,11,13,15,17,19,21,23,25,27,29,31,33,35,37,39,41,43,45,47,49,51,53,55,57,59,61,63,